-0.0339947	-0.0166094	0.0435463	-0.045708	-0.00599402	0.0402822	0.0450669	0.0414394	-0.00618031	-0.00619383	0.00169089	-0.0449145	-0.0475118	-0.00796015	-0.0307851	-0.00839851	-0.0108006	-0.0440527	0.0207662	0.0429189	0.0369696	0.0356833	-0.0490389	0.0018293	0.00670923	0.0355639	-0.0317706	0.0154301	0.00174298	-0.0494563	-0.0207259	0.0300297
-0.413182	-0.394493	0.356779	0.438421	0.390733	0.376621	-0.286663	0.407514	0.384373	0.388366	0.43612	0.437227	-0.428096	0.288914	-0.354342	-0.355792	0.373823	0.402203	-0.316654	-0.321706	0.331381	0.374259	0.341226	0.422898	-0.463838	0.431992	-0.434747	0.356618	0.35968	-0.421155	0.336733	-0.162224
-0.289015	-0.459648	0.467711	0.375163	0.438823	0.460726	-0.402503	0.237038	0.472464	0.456441	0.356663	0.372875	-0.431951	0.467505	-0.441485	-0.441965	0.396099	0.451508	-0.47854	-0.461296	0.305959	0.330561	0.320078	0.483781	-0.378222	0.254686	-0.405142	0.374751	0.421969	-0.461307	0.367548	-0.333637
-0.232451	-0.395909	0.459215	0.35794	0.312868	0.331731	-0.478486	0.479008	0.43218	0.446792	0.426432	0.416375	-0.385423	0.33863	-0.406179	-0.365796	0.465953	0.391836	-0.454325	-0.294954	0.432768	0.265663	0.381819	0.343073	-0.360418	0.296227	-0.33708	0.421905	0.471276	-0.375154	0.424008	-0.475254
-0.59328	-0.437167	0.197637	0.418834	0.471352	0.316497	-0.388996	0.393549	0.340639	0.401857	0.398854	0.338129	-0.293671	0.42387	-0.379222	-0.394476	0.274616	0.383828	-0.433617	-0.231835	0.53108	0.435601	0.389667	0.330543	-0.418776	0.463858	-0.518095	0.334667	0.518571	-0.429273	0.424777	-0.579438
-0.292209	-0.42312	0.436723	0.354142	0.353743	0.466678	-0.353291	0.438398	0.378905	0.398373	0.349753	0.385915	-0.371274	0.463684	-0.344137	-0.347552	0.352072	0.418935	-0.320429	-0.51579	0.478715	0.421882	0.350738	0.35729	-0.392578	0.292286	-0.407688	0.43365	0.377209	-0.416596	0.450502	-0.408612
-0.458159	-0.253641	0.386642	0.402638	0.359838	0.377508	-0.405575	0.441041	0.241766	0.313277	0.298266	0.362389	-0.255208	0.295697	-0.281307	-0.332982	0.357246	0.28436	-0.301659	-0.278856	0.406688	0.291503	0.353594	0.32817	-0.385191	0.372951	-0.412743	0.364401	0.353824	-0.290249	0.269657	-0.412289
-0.396429	-0.323862	0.362317	0.404148	0.378248	0.33358	-0.465197	0.437199	0.380773	0.410474	0.411896	0.418895	-0.310793	0.380412	-0.344741	-0.322759	0.40703	0.387714	-0.353821	-0.433245	0.386697	0.281833	0.447142	0.426444	-0.282145	0.245721	-0.427771	0.26476	0.381755	-0.39601	0.305311	-0.393836
-0.429267	-0.488474	0.321498	0.359267	0.404837	0.395754	-0.454158	0.349878	0.415004	0.322784	0.312801	0.447878	-0.486656	0.401168	-0.427757	-0.476243	0.35748	0.372481	-0.33806	-0.507022	0.501335	0.423923	0.359835	0.357351	-0.265336	0.340402	-0.3981	0.330693	0.38664	-0.337219	0.473866	-0.499126
-0.209798	-0.351312	0.325726	0.451404	0.389886	0.410931	-0.334384	0.391116	0.335078	0.303399	0.449427	0.384829	-0.422717	0.35521	-0.404729	-0.462561	0.423357	0.404091	-0.441435	-0.477576	0.395064	0.461086	0.335406	0.367886	-0.433554	0.459773	-0.376927	0.438426	0.329585	-0.362018	0.45157	-0.486362
-0.438908	-0.344414	0.584604	0.4073	0.282301	0.476207	-0.435019	0.444115	0.351131	0.280594	0.355961	0.487517	-0.412096	0.378908	-0.42619	-0.338377	0.469299	0.415873	-0.364239	-0.349779	0.323165	0.470709	0.257032	0.385788	-0.450058	0.567487	-0.403262	0.430732	0.276422	-0.378421	0.333077	-0.100143
-0.399617	-0.38238	0.470096	0.415746	0.433549	0.462636	-0.402949	0.31247	0.364013	0.37274	0.42472	0.3792	-0.392487	0.355534	-0.423156	-0.346045	0.363513	0.3622	-0.342625	-0.464306	0.369008	0.382831	0.305701	0.449532	-0.453893	0.506317	-0.397896	0.416959	0.430142	-0.361968	0.471133	-0.268883
-0.403604	-0.336644	0.432097	0.409566	0.280806	0.377263	-0.351465	0.374824	0.37852	0.308723	0.443662	0.353843	-0.441856	0.239226	-0.383295	-0.344288	0.38626	0.311175	-0.368449	-0.308774	0.241283	0.440505	0.390987	0.456671	-0.355106	0.452681	-0.337974	0.387953	0.320533	-0.361575	0.396776	-0.0788304
-0.0106268	-0.342851	0.36863	0.339809	0.301305	0.449069	-0.41705	0.33943	0.382084	0.35373	0.463022	0.380952	-0.370233	0.364346	-0.463423	-0.371348	0.312682	0.317572	-0.356646	-0.469363	0.468163	0.3998	0.468614	0.356413	-0.352016	0.434462	-0.424624	0.394085	0.31903	-0.438717	0.420137	-0.469706
-0.414568	-0.464522	0.368152	0.339284	0.396576	0.404369	-0.469708	0.464643	0.414074	0.347863	0.154992	0.36607	-0.416275	0.401026	-0.488218	-0.265143	0.3752	0.33364	-0.376195	-0.22752	0.365639	0.459805	0.491747	0.395285	-0.331915	0.392246	-0.2771	0.431609	0.441103	-0.428147	0.373198	-0.434042
-0.22413	-0.450893	0.424711	0.410541	0.429329	0.471022	-0.402527	0.490952	0.42216	0.308492	0.277118	0.459065	-0.487602	0.344577	-0.322584	-0.455364	0.388647	0.302647	-0.366524	-0.575102	0.396617	0.491193	0.37427	0.483442	-0.527371	0.343368	-0.309541	0.473159	0.348518	-0.379449	0.408668	-0.375851
-0.377119	-0.47458	0.344314	0.456393	0.405843	0.341156	-0.389319	0.339469	0.381994	0.432235	0.341451	0.431731	-0.430316	0.483552	-0.435508	-0.379401	0.357708	0.361517	-0.441738	-0.40735	0.385861	0.3521	0.420751	0.33515	-0.321886	0.344142	-0.419944	0.453531	0.353804	-0.417255	0.372711	-0.457912
-0.32544	-0.393145	0.362041	0.471982	0.39556	0.398145	-0.469165	0.310633	0.366826	0.376451	0.434243	0.379148	-0.377029	0.342588	-0.46956	-0.419217	0.371512	0.350312	-0.492922	-0.519403	0.370909	0.403623	0.387594	0.443777	-0.420362	0.397795	-0.355131	0.433513	0.446548	-0.39659	0.366359	-0.504267
-0.41683	-0.391794	0.461621	0.329025	0.40164	0.31813	-0.379445	0.466345	0.345763	0.36229	0.387534	0.351381	-0.397981	0.321402	-0.361193	-0.352225	0.359763	0.3165	-0.458831	-0.425548	0.394625	0.426192	0.413171	0.389957	-0.397803	0.332316	-0.312283	0.295083	0.36457	-0.359871	0.35265	-0.329199
-0.375917	-0.411992	0.53365	0.461894	0.416584	0.400271	-0.392195	0.330276	0.413147	0.468284	0.376655	0.421001	-0.338615	0.460779	-0.371378	-0.346151	0.357298	0.379373	-0.478214	-0.294763	0.457116	0.438062	0.493957	0.290782	-0.399379	0.364873	-0.397831	0.375853	0.315634	-0.381041	0.442645	-0.430533
-0.417888	-0.311872	0.39537	0.368765	0.32911	0.405888	-0.447039	0.351602	0.35837	0.365496	0.445554	0.443816	-0.430514	0.442071	-0.355939	-0.433439	0.294122	0.282911	-0.388417	-0.326637	0.380712	0.497281	0.491816	0.390202	-0.363292	0.417986	-0.317577	0.330683	0.322994	-0.378827	0.307262	-0.362285
-0.459559	-0.351926	0.464725	0.36823	0.453331	0.391796	-0.463307	0.25238	0.492528	0.452201	0.398689	0.412938	-0.424126	0.345775	-0.393031	-0.308902	0.317591	0.458976	-0.418835	-0.422271	0.485751	0.469621	0.47386	0.31961	-0.419193	0.454104	-0.344207	0.399099	0.308038	-0.36386	0.42569	-0.489065
-0.459692	-0.396547	0.454013	0.406783	0.350778	0.45359	-0.316712	0.352526	0.379196	0.34097	0.320168	0.437864	-0.356505	0.360227	-0.35596	-0.340338	0.428875	0.285742	-0.421123	-0.398305	0.384352	0.392807	0.309484	0.416607	-0.340719	0.34068	-0.361366	0.32677	0.424483	-0.37282	0.375013	-0.363812
-0.606005	-0.466513	0.214699	0.295334	0.396809	0.319967	-0.412613	0.412506	0.343114	0.333116	0.474669	0.462016	-0.312778	0.457241	-0.28056	-0.444545	0.380233	0.405643	-0.432095	-0.389649	0.411454	0.410588	0.497396	0.422259	-0.292749	0.503731	-0.410451	0.462586	0.390213	-0.330668	0.452583	-0.534228
0.0044076	-0.268443	0.568195	0.280001	0.292851	0.308961	-0.219082	0.130927	0.351484	0.311723	0.317772	0.393827	-0.39853	0.295878	-0.358157	-0.401133	0.470895	0.47169	-0.448041	-0.0944141	0.246773	0.307439	0.218742	0.472194	-0.421482	0.460326	-0.202148	0.390056	0.464488	-0.333645	0.429716	-0.0642818
-0.33378	-0.399279	0.468172	0.484109	0.394101	0.43929	-0.461571	0.436482	0.537142	0.401946	0.479807	0.464655	-0.50072	0.480472	-0.397467	-0.47295	0.480173	0.442939	-0.473084	-0.429442	0.382972	0.408617	0.536211	0.396344	-0.390729	0.390527	-0.404605	0.511071	0.406801	-0.502585	0.462084	-0.496071
-0.490047	-0.424157	0.310652	0.333576	0.432568	0.418108	-0.469259	0.378288	0.40893	0.428857	0.3286	0.416389	-0.334359	0.399819	-0.308501	-0.426673	0.278244	0.324984	-0.396568	-0.540013	0.481422	0.495165	0.371763	0.409959	-0.398096	0.414165	-0.274613	0.371492	0.330093	-0.398547	0.424654	-0.409631
-0.485282	-0.388446	0.325915	0.413516	0.38733	0.41463	-0.509604	0.40393	0.388258	0.413562	0.412163	0.396702	-0.414134	0.464289	-0.481318	-0.475528	0.349048	0.419335	-0.518345	-0.410165	0.442734	0.441482	0.416377	0.418225	-0.36364	0.526089	-0.38948	0.368647	0.49762	-0.392292	0.498752	-0.560564
-0.403962	-0.287232	0.460219	0.432504	0.273575	0.310144	-0.292031	0.310125	0.216977	0.432828	0.349401	0.256126	-0.421368	0.185004	-0.352496	-0.333409	0.391783	0.373999	-0.420317	-0.0852147	0.254988	0.354048	0.373657	0.439157	-0.259556	0.483407	-0.28713	0.392579	0.368508	-0.412499	0.291136	-0.027262
-0.306427	-0.413681	0.47384	0.469279	0.343685	0.504825	-0.443219	0.437131	0.501894	0.485769	0.368084	0.465893	-0.415369	0.42767	-0.401883	-0.429528	0.3584	0.451766	-0.495233	-0.394493	0.46254	0.425564	0.446468	0.396234	-0.390955	0.393681	-0.42452	0.476278	0.412676	-0.451459	0.444975	-0.388649
-0.336813	-0.381287	0.393411	0.432175	0.319076	0.439871	-0.399687	0.392622	0.447714	0.415032	0.352426	0.39838	-0.456784	0.333953	-0.350344	-0.388308	0.464863	0.439417	-0.416418	-0.314719	0.347068	0.296737	0.434069	0.362606	-0.366585	0.398385	-0.357691	0.375652	0.346318	-0.422655	0.450414	-0.430956
-0.294657	-0.349518	0.259597	0.392863	0.356955	0.41237	-0.400963	0.452027	0.392779	0.379862	0.393985	0.48724	-0.375961	0.494477	-0.400123	-0.370312	0.430019	0.419122	-0.425585	-0.465486	0.43188	0.483229	0.305046	0.452484	-0.357347	0.416093	-0.451665	0.441695	0.429503	-0.361395	0.506588	-0.431637
-0.194136	-0.426952	0.478081	0.45496	0.411811	0.468935	-0.390115	0.34614	0.489339	0.471175	0.430714	0.435973	-0.450859	0.514865	-0.406371	-0.442096	0.384437	0.475606	-0.52326	-0.513984	0.497227	0.411887	0.491514	0.425095	-0.501879	0.375077	-0.35704	0.409753	0.372358	-0.40234	0.485184	-0.499305
-0.515728	-0.452961	0.247809	0.451284	0.443846	0.374188	-0.412395	0.393976	0.448814	0.318467	0.357986	0.471712	-0.45553	0.446281	-0.409388	-0.447677	0.361743	0.459614	-0.489721	-0.396075	0.393076	0.477912	0.435818	0.476957	-0.337911	0.456255	-0.296085	0.432591	0.415485	-0.436696	0.365996	-0.412278
-0.384782	-0.340408	0.25994	0.351384	0.391844	0.352374	-0.316677	0.466974	0.371515	0.451466	0.298231	0.307513	-0.436383	0.407967	-0.472303	-0.420066	0.285441	0.345386	-0.368803	-0.45436	0.450997	0.453093	0.410717	0.375866	-0.447351	0.386117	-0.431313	0.332311	0.398326	-0.362847	0.381542	-0.469513
-0.199837	-0.44207	0.393052	0.371007	0.384953	0.471643	-0.368529	0.51957	0.372028	0.413598	0.386529	0.455052	-0.333957	0.463443	-0.302938	-0.430325	0.285652	0.310603	-0.346364	-0.361762	0.376799	0.403222	0.433184	0.35606	-0.436635	0.453767	-0.398782	0.362256	0.454062	-0.417574	0.403288	-0.350248
-0.407377	-0.509548	0.460016	0.463549	0.394765	0.452769	-0.465379	0.275203	0.430589	0.370651	0.553651	0.426686	-0.341765	0.413182	-0.526398	-0.419724	0.492667	0.43118	-0.376772	-0.332558	0.476081	0.435796	0.436391	0.37006	-0.400802	0.410686	-0.390334	0.495105	0.45148	-0.475279	0.413018	-0.352828
-0.397624	-0.324971	0.327307	0.416297	0.2835	0.325183	-0.278823	0.280695	0.324405	0.277015	0.420163	0.397497	-0.421125	0.286479	-0.40894	-0.318482	0.369314	0.404519	-0.423583	-0.361845	0.328229	0.385852	0.317362	0.417082	-0.288261	0.454517	-0.364039	0.398563	0.279184	-0.29676	0.366606	-0.362147
-0.0994368	-0.44157	0.343305	0.388064	0.472389	0.466139	-0.473305	0.526009	0.507231	0.152568	0.333112	0.387947	-0.449991	0.416249	-0.519373	-0.407238	0.361182	0.272818	-0.27599	-0.426255	0.426144	0.495015	0.295534	0.437158	-0.273083	0.321005	-0.462568	0.440882	0.436614	-0.34841	0.304952	-0.437906
-0.11385	-0.290036	0.67719	0.156579	0.476506	0.273254	-0.361957	-0.321872	0.50881	0.313538	0.201313	0.266521	-0.354337	0.384354	-0.33746	-0.271226	0.590989	0.326168	-0.438962	-0.355225	0.0108434	0.0703897	0.163179	0.60321	-0.470286	0.0586708	-0.239555	0.241455	0.339434	-0.235916	0.356878	-0.0345683
-0.496699	-0.41181	0.327265	0.487645	0.502455	0.477679	-0.396361	0.435151	0.441617	0.483183	0.401527	0.506252	-0.436033	0.525475	-0.375541	-0.424164	0.411957	0.462333	-0.444537	-0.466623	0.506784	0.397384	0.461411	0.433538	-0.454978	0.399641	-0.45233	0.463397	0.486549	-0.448954	0.438686	-0.480185
-0.379448	-0.470036	0.428592	0.32994	0.406088	0.326969	-0.391859	0.420041	0.406929	0.257042	0.290705	0.321333	-0.451277	0.354339	-0.415687	-0.326618	0.37103	0.24229	-0.460511	-0.470774	0.390423	0.311804	0.298316	0.403966	-0.335036	0.426462	-0.26649	0.427678	0.357738	-0.364572	0.304109	-0.345846
-0.335369	-0.335476	0.38743	0.410269	0.352611	0.434266	-0.365854	0.423809	0.439442	0.327928	0.370456	0.388178	-0.471638	0.310815	-0.39716	-0.372389	0.466414	0.407445	-0.375161	-0.379631	0.382803	0.357974	0.371901	0.431694	-0.415441	0.383217	-0.351567	0.367779	0.308918	-0.408367	0.382425	-0.375704
-0.360103	-0.416963	0.359272	0.425051	0.41906	0.476669	-0.523833	0.441854	0.463717	0.347915	0.347701	0.41337	-0.508135	0.460623	-0.497268	-0.425777	0.543212	0.401565	-0.387093	-0.515863	0.465637	0.424798	0.429823	0.460287	-0.270046	0.347953	-0.44207	0.402752	0.395745	-0.470808	0.428313	-0.318028
-0.351478	-0.348624	0.431832	0.448807	0.380348	0.461476	-0.344597	0.415505	0.461987	0.409783	0.389602	0.461937	-0.37828	0.37582	-0.397512	-0.368429	0.416596	0.397195	-0.321145	-0.469177	0.447795	0.483253	0.307153	0.333536	-0.47348	0.435751	-0.315852	0.478019	0.323909	-0.351197	0.48393	-0.420371
-0.217625	-0.391479	0.466153	0.29828	0.439809	0.342029	-0.391822	0.217859	0.396041	0.451375	0.457219	0.33493	-0.409712	0.428536	-0.35188	-0.40237	0.527398	0.372784	-0.40314	-0.297817	0.323139	0.367819	0.312233	0.387682	-0.370296	0.36845	-0.284649	0.410391	0.382413	-0.3947	0.406526	-0.259469
-0.125513	-0.428753	0.591496	0.333754	0.470922	0.303604	-0.443154	0.501473	0.325194	0.355475	0.36857	0.391975	-0.449958	0.421487	-0.2838	-0.431631	0.514525	0.309036	-0.332155	-0.358719	0.408808	0.38475	0.449381	0.328764	-0.502133	0.330246	-0.383181	0.429681	0.357768	-0.324032	0.318554	-0.473614
-0.272991	-0.427074	0.377838	0.396787	0.419835	0.447446	-0.303827	0.423601	0.490108	0.369376	0.438722	0.422317	-0.377205	0.281354	-0.361889	-0.394022	0.497238	0.400736	-0.461532	-0.424475	0.377546	0.441831	0.363055	0.273558	-0.484888	0.414478	-0.439032	0.445458	0.429198	-0.402234	0.451012	-0.536353
-0.332193	-0.434768	0.443746	0.425236	0.408041	0.4107	-0.414335	0.294974	0.409022	0.412388	0.372402	0.359408	-0.427731	0.339222	-0.397602	-0.450096	0.411228	0.437057	-0.418829	-0.419175	0.479321	0.411387	0.36998	0.436934	-0.328085	0.357901	-0.462532	0.324465	0.330417	-0.415458	0.428717	-0.35457
-0.357838	-0.322632	0.418	0.463613	0.442498	0.47974	-0.383221	0.350419	0.47445	0.356244	0.369161	0.411668	-0.482226	0.450306	-0.413011	-0.324315	0.376833	0.309546	-0.351321	-0.407723	0.454904	0.411691	0.452828	0.378284	-0.382521	0.395971	-0.290069	0.38916	0.39913	-0.322522	0.436462	-0.474116
-0.370999	-0.465804	0.398141	0.473983	0.447626	0.378018	-0.455497	0.456673	0.372732	0.355604	0.395947	0.472304	-0.477305	0.428944	-0.407524	-0.498966	0.355505	0.402938	-0.420036	-0.384634	0.461777	0.468973	0.384307	0.397219	-0.448027	0.397913	-0.419043	0.422806	0.416991	-0.436663	0.432798	-0.384614
-0.206257	-0.457919	0.444125	0.354895	0.424683	0.503718	-0.502147	0.486696	0.531459	0.385927	0.459426	0.468425	-0.458543	0.501505	-0.443315	-0.313519	0.536897	0.438061	-0.464169	-0.510817	0.525817	0.339124	0.398017	0.343519	-0.463349	0.400255	-0.388049	0.473027	0.398391	-0.354606	0.501264	-0.411957
-0.130387	-0.518102	0.460278	0.364852	0.513626	0.35918	-0.433171	0.450361	0.422363	0.277657	0.381547	0.385966	-0.303348	0.426749	-0.374089	-0.513283	0.257132	0.292334	-0.394356	-0.495363	0.390874	0.490622	0.424625	0.264693	-0.443156	0.388995	-0.429254	0.448197	0.375147	-0.482176	0.450024	-0.527528
0.00988414	-0.399436	0.370261	0.376247	0.531451	0.477819	-0.370872	0.105971	0.470344	0.416582	0.404967	0.332435	-0.472718	0.516519	-0.54213	-0.468485	0.472011	0.540124	-0.390778	-0.502297	0.238929	0.322986	0.1982	0.567897	-0.377335	0.249613	-0.336815	0.441779	0.345589	-0.511453	0.389905	-0.251153
-0.292881	-0.372586	0.485988	0.45621	0.42571	0.526679	-0.357349	0.337082	0.448769	0.453324	0.372176	0.390334	-0.443901	0.430984	-0.422995	-0.397312	0.55406	0.511688	-0.395479	-0.414965	0.362851	0.478062	0.412403	0.454547	-0.356789	0.447092	-0.373404	0.470511	0.408323	-0.399277	0.517942	-0.416869
-0.390571	-0.375763	0.388872	0.442419	0.401775	0.397141	-0.3598	0.344392	0.398342	0.403229	0.447387	0.434406	-0.323289	0.361055	-0.476176	-0.400726	0.263104	0.381643	-0.449866	-0.273228	0.427311	0.466251	0.388219	0.379894	-0.450799	0.489969	-0.381512	0.412947	0.455668	-0.363909	0.434067	-0.495145
-0.212125	-0.300813	0.395962	0.396125	0.394942	0.414793	-0.405168	0.358852	0.319479	0.428474	0.438743	0.345448	-0.29461	0.286501	-0.404273	-0.33555	0.354508	0.330116	-0.358993	-0.384777	0.386423	0.347926	0.33669	0.384964	-0.396544	0.39502	-0.420547	0.287695	0.406713	-0.409893	0.442009	-0.34393
-0.32535	-0.485199	0.410762	0.476192	0.413055	0.422878	-0.438517	0.422173	0.424052	0.459349	0.443612	0.413074	-0.485816	0.411297	-0.490301	-0.479653	0.419908	0.406826	-0.412193	-0.474708	0.442622	0.414435	0.383953	0.437809	-0.372752	0.452265	-0.479176	0.444139	0.372796	-0.429516	0.482486	-0.463179
-0.583097	-0.389105	0.393483	0.421816	0.418196	0.466947	-0.433425	0.460771	0.407993	0.39582	0.459394	0.465357	-0.367597	0.434142	-0.397211	-0.41492	0.342543	0.372334	-0.433119	-0.463047	0.413774	0.394725	0.42062	0.354751	-0.480412	0.491321	-0.380691	0.42115	0.435321	-0.346681	0.403406	-0.583488
-0.516582	-0.353637	0.214918	0.374734	0.408075	0.274605	-0.36513	0.374792	0.335504	0.368798	0.376134	0.362128	-0.372563	0.422991	-0.35413	-0.321197	0.284382	0.299306	-0.425058	-0.337251	0.360623	0.357671	0.476773	0.305158	-0.376467	0.388048	-0.421866	0.399742	0.430327	-0.33464	0.391257	-0.409455
-0.10195	-0.340946	0.468494	0.280169	0.2933	0.390218	-0.315666	0.184287	0.377392	0.341347	0.386921	0.362343	-0.424907	0.198086	-0.326067	-0.35988	0.370386	0.299302	-0.294059	-0.29388	0.144853	0.289968	0.272144	0.406784	-0.346577	0.388452	-0.367358	0.337202	0.355276	-0.349602	0.395523	0.113191
-0.357165	-0.325473	0.310061	0.391791	0.446233	0.418367	-0.320754	0.387143	0.344534	0.309099	0.394618	0.326321	-0.430725	0.29203	-0.339687	-0.338098	0.413534	0.348315	-0.355847	-0.336293	0.432569	0.4091	0.375962	0.382017	-0.389312	0.444528	-0.3337	0.423693	0.407448	-0.394963	0.353417	-0.399332
-0.37148	-0.527393	0.302895	0.467323	0.474599	0.472178	-0.511166	0.471434	0.473945	0.427913	0.373285	0.493293	-0.500571	0.529048	-0.433455	-0.480805	0.343676	0.509858	-0.427507	-0.423973	0.388397	0.392402	0.531913	0.417428	-0.431922	0.577841	-0.49142	0.379618	0.424576	-0.368846	0.43927	-0.560726
-0.311366	-0.413386	0.345655	0.396977	0.445532	0.418694	-0.444466	0.441666	0.458027	0.455919	0.306795	0.489922	-0.456942	0.420499	-0.375465	-0.440248	0.324621	0.376353	-0.469298	-0.395419	0.515767	0.366259	0.44721	0.395081	-0.411939	0.46511	-0.416792	0.464327	0.483447	-0.439887	0.478352	-0.456159
-0.412258	-0.419549	0.401497	0.450482	0.391726	0.485077	-0.440564	0.453984	0.487622	0.483461	0.341646	0.420406	-0.397013	0.494761	-0.485411	-0.474742	0.471526	0.457322	-0.470912	-0.339024	0.3748	0.422844	0.387724	0.403559	-0.455129	0.377667	-0.385441	0.441271	0.38645	-0.488327	0.431307	-0.491652
-0.373818	-0.424136	0.43622	0.367326	0.409663	0.36369	-0.445086	0.387413	0.368311	0.406785	0.422387	0.403879	-0.482229	0.464989	-0.402671	-0.412967	0.495544	0.418942	-0.474649	-0.477931	0.466444	0.441666	0.332947	0.482364	-0.397809	0.365372	-0.300933	0.398054	0.340862	-0.441917	0.37413	-0.457292
-0.393755	-0.421461	0.472339	0.366402	0.319579	0.44601	-0.399254	0.458361	0.496882	0.451806	0.458361	0.444767	-0.381863	0.347123	-0.410491	-0.346862	0.324734	0.430667	-0.323538	-0.43179	0.433873	0.494237	0.400628	0.327727	-0.444771	0.340992	-0.338964	0.38335	0.41122	-0.471193	0.397515	-0.48635
-0.585263	-0.361669	0.499655	0.406896	0.332314	0.445764	-0.378172	0.496847	0.303719	0.37898	0.429064	0.479452	-0.471948	0.482766	-0.478385	-0.432878	0.395921	0.410715	-0.399691	-0.443298	0.352725	0.362819	0.403795	0.464192	-0.306101	0.40635	-0.483447	0.43842	0.51066	-0.422214	0.380427	-0.493013
-0.455902	-0.347232	0.399303	0.472252	0.464754	0.469098	-0.414469	0.471326	0.450854	0.377148	0.437661	0.405281	-0.380265	0.384673	-0.483186	-0.340014	0.344716	0.440721	-0.362879	-0.509931	0.466548	0.383715	0.38376	0.390219	-0.43305	0.470185	-0.328684	0.412972	0.422027	-0.498561	0.367932	-0.514225
-0.261018	-0.41495	0.226888	0.396988	0.364047	0.361121	-0.492548	0.427181	0.373494	0.30743	0.443099	0.425308	-0.340517	0.358222	-0.39619	-0.43154	0.294628	0.325479	-0.303607	-0.346094	0.431483	0.312694	0.473832	0.430003	-0.344726	0.387831	-0.313927	0.348977	0.40983	-0.402457	0.431629	-0.495515
-0.460193	-0.392576	0.390531	0.400823	0.372014	0.434089	-0.376722	0.287551	0.462936	0.446485	0.341112	0.38154	-0.396721	0.334495	-0.342398	-0.394431	0.368306	0.337807	-0.421746	-0.439297	0.405388	0.399571	0.379465	0.396568	-0.416397	0.342482	-0.346899	0.409043	0.357583	-0.333205	0.346728	-0.392147
-0.33154	-0.43854	0.441897	0.303228	0.377012	0.274148	-0.296861	0.441009	0.35572	0.479086	0.393966	0.36204	-0.455015	0.253649	-0.307362	-0.346688	0.252722	0.320176	-0.498039	-0.408733	0.317199	0.468705	0.26374	0.31501	-0.450833	0.304358	-0.346424	0.417185	0.47412	-0.262576	0.431859	-0.466935
-0.0561339	-0.495949	0.439385	0.404687	0.506527	0.470401	-0.422545	0.389203	0.386316	0.366257	0.429992	0.492651	-0.515903	0.497398	-0.510314	-0.378458	0.552508	0.457622	-0.48873	-0.383355	0.439309	0.450658	0.332096	0.447697	-0.409518	0.518112	-0.40997	0.492037	0.452992	-0.45751	0.512623	-0.410303
-0.239408	-0.423194	0.319589	0.3788	0.507451	0.386956	-0.370204	0.419055	0.466661	0.532718	0.443496	0.448465	-0.411165	0.480887	-0.543158	-0.309883	0.360501	0.497353	-0.50051	-0.384313	0.326346	0.419778	0.491862	0.331998	-0.526499	0.413304	-0.438706	0.402397	0.474041	-0.411621	0.550189	-0.507452
0.0169671	-0.298889	0.333033	0.475883	0.380886	0.348768	-0.230821	-0.0111383	0.458224	0.491479	0.494157	0.440937	-0.478572	0.387173	-0.564456	-0.56088	0.528632	0.513287	-0.552314	-0.24937	0.30544	0.212434	0.262834	0.544574	-0.238622	0.199428	-0.415342	0.501275	0.461329	-0.535716	0.458686	-0.100498
-0.271639	-0.412389	0.415104	0.385999	0.457972	0.490166	-0.416582	0.41543	0.481173	0.405801	0.444131	0.475465	-0.48734	0.456724	-0.435613	-0.380742	0.393063	0.407998	-0.434541	-0.394491	0.369567	0.395312	0.46573	0.487197	-0.327831	0.385395	-0.450022	0.408218	0.392622	-0.405071	0.479994	-0.458926
-0.273757	-0.359454	0.490289	0.345283	0.389716	0.399959	-0.458916	0.467634	0.349612	0.471134	0.387983	0.387321	-0.418398	0.360335	-0.419973	-0.378872	0.43049	0.410242	-0.375207	-0.488099	0.376007	0.423351	0.344774	0.329494	-0.47842	0.324642	-0.313794	0.435401	0.414733	-0.4246	0.364925	-0.464244
-0.417642	-0.405507	0.437062	0.512962	0.42263	0.419581	-0.352757	0.514992	0.423689	0.317431	0.477644	0.384119	-0.431307	0.413023	-0.427205	-0.385121	0.46955	0.406186	-0.457535	-0.472924	0.34164	0.425124	0.34325	0.40127	-0.454329	0.427733	-0.449652	0.420193	0.423861	-0.365732	0.386244	-0.443771
-0.594294	-0.473823	0.349162	0.370318	0.414809	0.36167	-0.424808	0.436937	0.389839	0.476482	0.461141	0.497767	-0.323363	0.537059	-0.337169	-0.439014	0.369107	0.405054	-0.427178	-0.374719	0.418673	0.41875	0.508084	0.353236	-0.44745	0.492177	-0.454369	0.378402	0.476986	-0.403422	0.348045	-0.464031
-0.420098	-0.503606	0.368276	0.399781	0.360994	0.387446	-0.3838	0.397668	0.407653	0.378429	0.360187	0.388489	-0.355534	0.378456	-0.407951	-0.435167	0.45682	0.418577	-0.422086	-0.394572	0.487227	0.466826	0.493253	0.453661	-0.383945	0.309564	-0.440249	0.448497	0.30275	-0.32924	0.341788	-0.474997
-0.446581	-0.358287	0.364166	0.436225	0.4389	0.430046	-0.494422	0.418547	0.355597	0.358878	0.420907	0.413688	-0.443242	0.476218	-0.441844	-0.471627	0.52361	0.3764	-0.412463	-0.476402	0.345364	0.38017	0.401799	0.350386	-0.388722	0.402162	-0.390464	0.385391	0.410567	-0.403691	0.383268	-0.463165
-0.0742131	-0.370575	0.627192	0.238896	0.330373	0.182866	-0.287735	-0.0704183	0.495583	0.378731	0.307102	0.250373	-0.297644	0.176629	-0.263691	-0.252062	0.409197	0.366182	-0.320847	-0.163121	-0.0439626	0.250399	0.358838	0.471735	-0.39261	0.275607	-0.239999	0.33991	0.312714	-0.35969	0.38563	0.0101514
-0.491476	-0.482837	0.414869	0.484794	0.417049	0.493168	-0.399327	0.314555	0.416589	0.351964	0.433268	0.389387	-0.391817	0.475431	-0.49165	-0.514346	0.424564	0.447276	-0.484048	-0.362391	0.457644	0.525909	0.465058	0.364412	-0.364936	0.455297	-0.479596	0.333011	0.454023	-0.380091	0.476093	-0.473021
-0.364422	-0.393899	0.361345	0.425562	0.43077	0.374399	-0.365174	0.4217	0.466717	0.347934	0.330511	0.396628	-0.436592	0.33551	-0.381941	-0.39988	0.428958	0.362757	-0.46599	-0.411265	0.337737	0.420151	0.40287	0.368175	-0.317041	0.373176	-0.320833	0.363349	0.373241	-0.363601	0.339479	-0.324151
-0.218066	-0.305079	0.435604	0.409834	0.268914	0.414676	-0.40962	0.417192	0.337689	0.443317	0.406673	0.377525	-0.391096	0.288927	-0.355151	-0.297026	0.345771	0.297495	-0.315613	-0.36347	0.337242	0.245927	0.287822	0.413087	-0.324194	0.372989	-0.271477	0.327292	0.418231	-0.432535	0.261928	-0.170501
-0.205282	-0.418979	0.314649	0.470238	0.349091	0.397049	-0.499104	0.375661	0.416275	0.420985	0.400149	0.441961	-0.429903	0.28977	-0.430918	-0.455925	0.446162	0.508392	-0.48282	-0.396561	0.345798	0.43826	0.258453	0.406697	-0.313433	0.396098	-0.33566	0.382774	0.392863	-0.448052	0.426294	-0.445273
-0.125084	-0.422011	0.443051	0.340585	0.435984	0.403505	-0.465788	0.383631	0.388008	0.378368	0.390907	0.356667	-0.473989	0.389446	-0.39427	-0.394394	0.413235	0.470792	-0.433829	-0.409659	0.458234	0.343767	0.385626	0.417364	-0.45289	0.407604	-0.381936	0.360992	0.455235	-0.462772	0.443937	-0.433358
-0.573787	-0.400099	0.119011	0.390937	0.378265	0.351634	-0.410339	0.43854	0.213686	0.33535	0.428983	0.443359	-0.293188	0.447551	-0.405901	-0.351283	0.404468	0.36947	-0.41447	-0.338282	0.41153	0.315437	0.503057	0.382681	-0.389894	0.499969	-0.432522	0.325485	0.469399	-0.43103	0.425547	-0.430255
-0.391249	-0.362321	0.498007	0.256195	0.396061	0.26889	-0.494827	0.402044	0.345318	0.482795	0.373204	0.40104	-0.359867	0.462942	-0.372059	-0.512949	0.355212	0.303471	-0.312077	-0.240723	0.431624	0.318927	0.262135	0.231795	-0.365467	0.186854	-0.418868	0.400955	0.427259	-0.353555	0.30304	-0.324453
-0.635308	-0.494498	0.321697	0.455484	0.550152	0.347462	-0.539771	0.462044	0.347218	0.392768	0.292579	0.390437	-0.472314	0.361825	-0.389932	-0.317751	0.313136	0.437515	-0.557983	-0.527257	0.434481	0.496466	0.571535	0.501669	-0.528501	0.512103	-0.343908	0.450175	0.466284	-0.384809	0.355727	-0.59829
-0.493058	-0.363407	0.305048	0.387637	0.371087	0.447247	-0.332103	0.385982	0.459657	0.458872	0.267857	0.359183	-0.407928	0.37459	-0.375939	-0.417688	0.347456	0.42787	-0.385907	-0.463624	0.457732	0.466018	0.319652	0.391538	-0.415319	0.387119	-0.382077	0.337433	0.406862	-0.402863	0.352142	-0.414742
-0.501538	-0.392156	0.49043	0.430596	0.218399	0.302977	-0.43261	0.211712	0.494705	0.359717	0.494645	0.404814	-0.473384	0.369236	-0.392352	-0.324099	0.437267	0.428804	-0.37703	-0.367843	0.261317	0.237809	0.106066	0.431191	-0.172354	0.541774	-0.254819	0.344391	0.379532	-0.425903	0.405755	-0.351988
-0.248295	-0.454409	0.45489	0.508206	0.389982	0.435563	-0.391415	0.32736	0.417101	0.475751	0.527071	0.377624	-0.570677	0.45549	-0.40449	-0.531247	0.505859	0.438538	-0.514537	-0.344866	0.325515	0.34148	0.295014	0.460546	-0.480781	0.309632	-0.4657	0.45095	0.475976	-0.455652	0.449961	-0.202659
-0.206983	-0.498266	0.0796567	0.461145	0.312745	0.340018	-0.336709	0.443807	0.211316	0.564998	0.133553	0.375107	-0.388416	0.204711	-0.181365	-0.297578	0.531924	0.280704	-0.293988	-0.501658	0.16205	0.356959	0.417579	0.419394	-0.50894	0.180156	-0.359859	0.344069	0.478841	-0.276451	0.284322	-0.560693
-0.242788	-0.391983	0.429149	0.41828	0.406567	0.477763	-0.338926	0.185062	0.377668	0.482805	0.39883	0.377754	-0.435278	0.411177	-0.39482	-0.407605	0.512025	0.525726	-0.500339	-0.249698	0.317345	0.421778	0.253088	0.512166	-0.330635	0.294918	-0.391444	0.47008	0.413393	-0.441174	0.51192	-0.132446
-0.643936	-0.400705	0.304671	0.483034	0.342388	0.468638	-0.372723	0.521209	0.274243	0.309132	0.388884	0.335673	-0.336488	0.386495	-0.437269	-0.383612	0.218401	0.326508	-0.301008	-0.3532	0.496796	0.464761	0.526026	0.348663	-0.450104	0.333783	-0.431257	0.270781	0.382637	-0.341756	0.320386	-0.468921
-0.271935	-0.443515	0.408559	0.336908	0.413568	0.427319	-0.503016	0.337277	0.345358	0.374483	0.294607	0.362381	-0.417254	0.325263	-0.428886	-0.403606	0.359036	0.370073	-0.434499	-0.338289	0.4603	0.422525	0.519389	0.353099	-0.340503	0.410476	-0.335488	0.31656	0.353072	-0.398517	0.430669	-0.386707
-0.357279	-0.453636	0.385965	0.522979	0.412003	0.469284	-0.422632	0.447772	0.458281	0.469118	0.44709	0.420656	-0.479223	0.56424	-0.429972	-0.395094	0.44416	0.453374	-0.434489	-0.369345	0.498716	0.394265	0.450366	0.452818	-0.437837	0.441496	-0.459156	0.447534	0.468553	-0.448522	0.437887	-0.447358
-0.354439	-0.378701	0.385655	0.4904	0.487162	0.450207	-0.402679	0.467974	0.38528	0.401091	0.379678	0.444317	-0.500506	0.427556	-0.461178	-0.415694	0.366632	0.417458	-0.428231	-0.486284	0.40257	0.416166	0.434523	0.404876	-0.436654	0.34397	-0.483251	0.498313	0.373326	-0.472432	0.484484	-0.501248
-0.280318	-0.424405	0.263412	0.385878	0.442696	0.397622	-0.472461	0.401066	0.518194	0.345921	0.417892	0.451789	-0.515254	0.455399	-0.399872	-0.470856	0.49947	0.491413	-0.434621	-0.491621	0.362066	0.32162	0.284674	0.386901	-0.402031	0.381944	-0.445	0.424795	0.390334	-0.435529	0.45934	-0.490788
-0.450027	-0.379106	0.299947	0.410616	0.368342	0.454659	-0.391889	0.443483	0.411882	0.515843	0.425137	0.346115	-0.472247	0.403697	-0.450967	-0.49986	0.431671	0.504843	-0.49925	-0.470204	0.464883	0.419115	0.276985	0.359084	-0.356369	0.493921	-0.250813	0.518279	0.427309	-0.482806	0.533924	-0.262783
-0.311562	-0.495078	0.400142	0.501002	0.437381	0.471054	-0.366022	0.456312	0.407705	0.530575	0.50393	0.417464	-0.442348	0.555114	-0.487871	-0.411219	0.510266	0.476931	-0.413799	-0.482671	0.391174	0.378553	0.462248	0.413089	-0.456564	0.460021	-0.472641	0.44578	0.499015	-0.43224	0.526429	-0.458866
-0.3014	-0.305459	0.338192	0.438154	0.466765	0.369968	-0.464289	0.551937	0.31409	0.490628	0.378857	0.453042	-0.398847	0.462121	-0.466929	-0.389075	0.422119	0.374734	-0.455531	-0.477785	0.399553	0.339783	0.337925	0.370985	-0.468707	0.343074	-0.304161	0.374788	0.457628	-0.359777	0.473459	-0.451851
-0.289707	-0.431851	0.402392	0.371861	0.422974	0.44648	-0.434594	0.460007	0.435588	0.362777	0.380551	0.478925	-0.482395	0.347739	-0.416386	-0.490052	0.417476	0.392676	-0.377108	-0.467783	0.427731	0.429534	0.417255	0.398494	-0.3983	0.356455	-0.381747	0.453078	0.366386	-0.416152	0.397406	-0.458792
-0.345563	-0.372269	0.404885	0.362411	0.410017	0.364421	-0.385806	0.454512	0.508155	0.367368	0.499133	0.440205	-0.359564	0.254949	-0.411522	-0.436184	0.435458	0.354249	-0.370137	-0.167451	0.326171	0.386168	0.436312	0.328717	-0.357405	0.285683	-0.404468	0.449873	0.375242	-0.450804	0.424445	-0.297414
-0.462179	-0.409828	0.347117	0.436688	0.447033	0.507757	-0.383562	0.434461	0.480404	0.507869	0.382779	0.457154	-0.450244	0.411873	-0.496549	-0.429619	0.499482	0.479314	-0.482165	-0.421799	0.42939	0.450498	0.377603	0.433302	-0.422199	0.428121	-0.365511	0.391286	0.372819	-0.46651	0.473518	-0.474529
-0.449026	-0.427735	0.384261	0.499133	0.500901	0.520536	-0.354455	0.479279	0.396804	0.459005	0.369596	0.39226	-0.417515	0.45075	-0.392506	-0.486332	0.452973	0.41849	-0.411123	-0.448067	0.517005	0.443622	0.379206	0.415238	-0.425972	0.368152	-0.475744	0.444438	0.444937	-0.423981	0.466232	-0.45907
-0.587223	-0.512533	0.431474	0.379334	0.408542	0.503827	-0.522339	0.427885	0.345448	0.469843	0.391325	0.441816	-0.372271	0.436392	-0.4157	-0.517801	0.385605	0.481968	-0.451426	-0.382423	0.502811	0.464632	0.454295	0.4066	-0.424104	0.406173	-0.394566	0.40041	0.487916	-0.434248	0.407434	-0.484087
-0.586457	-0.551498	0.133315	0.321304	0.236363	0.541471	-0.39345	0.653159	0.49767	0.590946	0.65855	0.586465	-0.282437	0.445131	-0.551952	-0.55736	0.440963	0.482342	-0.316874	-0.142869	0.271219	0.0780125	0.32181	0.216134	-0.45741	0.298637	-0.497902	0.638931	0.324049	-0.538608	0.514615	-0.124301
-0.274006	-0.371745	0.342774	0.497985	0.39186	0.369814	-0.498614	0.448938	0.348354	0.433481	0.41979	0.430829	-0.396731	0.343579	-0.319937	-0.430689	0.309859	0.446094	-0.357738	-0.372899	0.373916	0.437407	0.458814	0.467302	-0.325672	0.511097	-0.457471	0.491856	0.507247	-0.374248	0.445044	-0.358984
-0.589911	-0.299195	0.370863	0.341617	0.287134	0.317394	-0.405088	0.269984	0.342493	0.436161	0.299951	0.411328	-0.386441	0.400825	-0.28232	-0.423358	0.276129	0.381237	-0.435517	-0.380683	0.405488	0.331396	0.368026	0.406557	-0.397212	0.420849	-0.422286	0.297004	0.426067	-0.422494	0.480133	-0.504262
-0.247662	-0.434627	0.521993	0.370679	0.370416	0.441433	-0.51159	0.263581	0.449633	0.439281	0.506196	0.483665	-0.48385	0.476459	-0.510113	-0.415507	0.516948	0.505482	-0.50689	-0.40007	0.466775	0.411603	0.474857	0.390264	-0.432796	0.413455	-0.378553	0.482981	0.379741	-0.462274	0.479864	-0.442312
-0.530036	-0.427961	0.34549	0.379696	0.45034	0.357785	-0.424281	0.389599	0.464388	0.361475	0.475601	0.423585	-0.335654	0.381428	-0.39955	-0.461009	0.415376	0.408613	-0.471989	-0.453807	0.386788	0.372208	0.493896	0.401039	-0.387747	0.430194	-0.476437	0.401952	0.463948	-0.383711	0.492823	-0.476986
-0.296477	-0.398091	0.33259	0.451359	0.337449	0.388199	-0.393396	0.45487	0.382919	0.385089	0.457336	0.477254	-0.447924	0.497827	-0.425692	-0.393488	0.465458	0.488925	-0.392023	-0.364085	0.464481	0.429239	0.487773	0.401634	-0.43631	0.396363	-0.391212	0.412764	0.40301	-0.353095	0.402064	-0.471318
-0.346842	-0.317469	0.437467	0.350958	0.408497	0.446441	-0.411696	0.41644	0.470962	0.419258	0.456663	0.417808	-0.398967	0.428199	-0.381179	-0.463116	0.379673	0.459542	-0.373714	-0.458646	0.324198	0.343734	0.439076	0.40382	-0.424415	0.362529	-0.433343	0.438215	0.321884	-0.433545	0.35903	-0.294851
-0.48355	-0.406585	0.431277	0.351008	0.419596	0.440677	-0.374346	0.364074	0.427861	0.427986	0.306286	0.421361	-0.402929	0.437802	-0.433719	-0.40137	0.377191	0.346099	-0.411309	-0.363324	0.353857	0.392831	0.288149	0.344133	-0.336061	0.369606	-0.415905	0.406758	0.493337	-0.427813	0.433581	-0.527954
-0.223021	-0.403315	0.328112	0.266271	0.264003	0.271907	-0.266887	0.160444	0.275677	0.422623	0.341214	0.382591	-0.206753	0.294174	-0.267715	-0.321411	0.0842986	0.288024	-0.388084	-0.449211	0.303402	0.469695	0.360502	0.351221	-0.30304	0.270155	-0.36328	0.260768	0.260717	-0.33124	0.229469	-0.156626
-0.253549	-0.367171	0.377843	0.414838	0.37475	0.392195	-0.461313	0.50062	0.482227	0.454718	0.427434	0.45918	-0.390209	0.569173	-0.380049	-0.356739	0.467385	0.489179	-0.340895	-0.433721	0.359712	0.50088	0.427535	0.361485	-0.394807	0.413778	-0.432773	0.394711	0.470245	-0.416063	0.402622	-0.384306
-0.488333	-0.522642	0.294392	0.374229	0.37627	0.391696	-0.421013	0.428472	0.412312	0.345937	0.389455	0.439746	-0.516831	0.45467	-0.377725	-0.51053	0.469971	0.503833	-0.433562	-0.4642	0.549944	0.442395	0.391464	0.448379	-0.359299	0.408492	-0.485081	0.49442	0.495649	-0.460741	0.523433	-0.542868
-0.129874	-0.455313	0.471911	0.360211	0.305715	0.420401	-0.380252	0.345439	0.524464	0.41296	0.4832	0.478642	-0.427829	0.392324	-0.47822	-0.46601	0.54163	0.488377	-0.517563	-0.292466	0.462307	0.397654	0.498426	0.450025	-0.430761	0.432911	-0.454808	0.451004	0.431509	-0.438299	0.438938	-0.432979
-0.532627	-0.401376	0.292587	0.367607	0.388435	0.39932	-0.395201	0.427971	0.314791	0.450831	0.37097	0.421598	-0.398805	0.338924	-0.452976	-0.393833	0.308193	0.361226	-0.439324	-0.359524	0.340544	0.402697	0.410398	0.499683	-0.362924	0.418202	-0.403233	0.328463	0.415665	-0.389928	0.391491	-0.380845
-0.545998	-0.517641	0.32484	0.374574	0.541811	0.334123	-0.342404	0.26473	0.360166	0.381102	0.30997	0.384188	-0.414686	0.521881	-0.312099	-0.490429	0.0974494	0.250711	-0.493364	-0.388978	0.548106	0.388323	0.191562	0.445305	-0.158965	0.376985	-0.20258	0.208377	0.482954	-0.477893	0.306162	-0.596312
-0.314085	-0.501686	0.543145	0.405557	0.4911	0.51843	-0.41382	0.411116	0.437861	0.476864	0.415335	0.518475	-0.524308	0.476568	-0.384969	-0.404449	0.407766	0.448807	-0.474511	-0.44329	0.421134	0.514134	0.514879	0.379684	-0.42112	0.466122	-0.47816	0.404011	0.464076	-0.516807	0.514158	-0.30953
-0.673885	-0.271471	0.205525	0.396578	0.412286	0.289286	-0.29198	0.425173	0.301573	0.228098	0.482776	0.347574	-0.3112	0.360679	-0.350312	-0.393244	0.344888	0.476115	-0.407264	-0.39023	0.229998	0.491447	0.23225	0.409531	-0.388081	0.393889	-0.525281	0.320014	0.316526	-0.368149	0.235247	-0.349859
-0.151051	-0.384331	0.294761	0.358552	0.23865	0.414059	-0.382848	0.28338	0.274812	0.315399	0.387654	0.455668	-0.394189	0.187546	-0.375335	-0.522004	0.51122	0.484629	-0.414277	-0.19671	0.373689	0.375705	0.405674	0.576365	-0.276209	0.454655	-0.441214	0.368432	0.270221	-0.503362	0.379675	-0.176409
-0.407201	-0.350228	0.464316	0.458323	0.48318	0.498422	-0.476165	0.445253	0.379901	0.473499	0.41115	0.453575	-0.433421	0.382002	-0.39751	-0.461687	0.370376	0.472843	-0.412909	-0.499258	0.446817	0.452017	0.478145	0.454388	-0.39288	0.357422	-0.411973	0.443888	0.453502	-0.388325	0.446485	-0.41484
-0.295732	-0.460934	0.319165	0.415866	0.354251	0.492294	-0.358633	0.278772	0.367677	0.49943	0.428552	0.383739	-0.528148	0.451646	-0.455949	-0.489615	0.572169	0.436787	-0.489889	-0.240873	0.39747	0.333473	0.335856	0.541918	-0.358836	0.33839	-0.473291	0.431095	0.382113	-0.474091	0.451573	-0.296454
-0.451008	-0.366694	0.469488	0.422301	0.454528	0.439579	-0.380797	0.441771	0.359219	0.316566	0.393297	0.364386	-0.322975	0.488321	-0.300924	-0.36971	0.386019	0.338297	-0.456912	-0.389649	0.387908	0.447864	0.359658	0.514538	-0.327541	0.468293	-0.486537	0.476649	0.433494	-0.336119	0.402821	-0.430334
-0.342369	-0.404809	0.405714	0.383733	0.324233	0.459134	-0.42488	0.39932	0.501729	0.345025	0.407321	0.289864	-0.398811	0.375155	-0.470575	-0.301525	0.43508	0.427476	-0.503604	-0.33164	0.377555	0.303963	0.329772	0.344238	-0.314804	0.270377	-0.471723	0.357367	0.391149	-0.489648	0.445556	-0.355125
-0.374608	-0.411529	0.440203	0.470134	0.411	0.490581	-0.390907	0.457564	0.453264	0.435352	0.365737	0.397365	-0.529329	0.418166	-0.463778	-0.46586	0.372397	0.401485	-0.464219	-0.405487	0.429524	0.437261	0.361851	0.387848	-0.432779	0.419971	-0.342609	0.504064	0.443366	-0.378423	0.413379	-0.455124
-0.382923	-0.431166	0.431048	0.457714	0.389106	0.358933	-0.404327	0.376789	0.389731	0.444181	0.403012	0.404797	-0.434733	0.388104	-0.431259	-0.463229	0.429734	0.437682	-0.341552	-0.421318	0.426989	0.446832	0.478246	0.335046	-0.395222	0.460111	-0.413332	0.450092	0.418236	-0.378707	0.413234	-0.434943
-0.344162	-0.43866	0.376338	0.427486	0.411072	0.375041	-0.442947	0.497615	0.457879	0.47293	0.450692	0.454067	-0.446825	0.509434	-0.404725	-0.480918	0.4185	0.414078	-0.326785	-0.499791	0.434312	0.396916	0.367289	0.405089	-0.423857	0.452244	-0.416293	0.379872	0.364754	-0.345518	0.361622	-0.512793
-0.432507	-0.515354	0.486901	0.482466	0.471684	0.497156	-0.393983	0.46086	0.374487	0.322261	0.473609	0.442314	-0.477596	0.452861	-0.473647	-0.42061	0.379693	0.319486	-0.520174	-0.395076	0.431332	0.354257	0.398212	0.471314	-0.398259	0.343408	-0.457326	0.350618	0.385709	-0.395704	0.48478	-0.485386
-0.185855	-0.363435	0.489944	0.441837	0.300837	0.402096	-0.287754	0.406937	0.342792	0.418428	0.460348	0.44025	-0.449159	0.304905	-0.345679	-0.337884	0.479035	0.48103	-0.327076	-0.327813	0.344007	0.412536	0.372364	0.36624	-0.364526	0.345556	-0.406557	0.354939	0.338724	-0.472052	0.344541	-0.279982
-0.427081	-0.272974	0.443151	0.421999	0.416755	0.392298	-0.447494	0.426546	0.294277	0.526529	0.441625	0.358563	-0.3115	0.332522	-0.478917	-0.420106	0.323126	0.439804	-0.480122	-0.428032	0.404039	0.316527	0.364561	0.411985	-0.396487	0.283285	-0.239056	0.368866	0.449668	-0.479243	0.386526	-0.527255
-0.319771	-0.461426	0.334348	0.460416	0.335287	0.509224	-0.428003	0.482956	0.437139	0.435916	0.484611	0.394772	-0.393445	0.401293	-0.436185	-0.465226	0.392628	0.454529	-0.353439	-0.273596	0.331236	0.354896	0.378765	0.438777	-0.371568	0.403449	-0.451584	0.48907	0.488809	-0.485666	0.424324	-0.445863
-0.280156	-0.281679	0.196998	0.262351	0.270335	0.316595	-0.197587	0.306838	0.256045	0.291797	0.312988	0.322997	-0.350918	0.259683	-0.353257	-0.336868	0.181818	0.329585	-0.291653	-0.153252	0.288299	0.308419	0.304222	0.273048	-0.276936	0.237541	-0.318897	0.233616	0.311014	-0.257385	0.254511	-0.101153
-0.504376	-0.442264	0.390613	0.470579	0.467883	0.424226	-0.463397	0.477701	0.407788	0.494069	0.353533	0.487524	-0.409519	0.37732	-0.405629	-0.446543	0.352129	0.405156	-0.513606	-0.519582	0.450248	0.445985	0.421911	0.464066	-0.44328	0.489589	-0.360657	0.46219	0.39242	-0.455725	0.442193	-0.494516
-0.515911	-0.352194	0.330392	0.372732	0.434035	0.513655	-0.482393	0.509626	0.499151	0.524294	0.520572	0.436286	-0.399658	0.454299	-0.387991	-0.327696	0.351301	0.426437	-0.469364	-0.536637	0.319642	0.506151	0.560721	0.458586	-0.567337	0.313562	-0.423578	0.374901	0.410528	-0.523956	0.389205	-0.383319
-0.482663	-0.351172	0.183602	0.429484	0.363962	0.439039	-0.372153	0.346183	0.39766	0.324716	0.318047	0.351329	-0.338719	0.388858	-0.351154	-0.399769	0.424619	0.412267	-0.47502	-0.410198	0.327476	0.247247	0.381724	0.397825	-0.330966	0.370136	-0.338184	0.426323	0.44383	-0.462658	0.375317	-0.42323
-0.35089	-0.509121	0.415692	0.435298	0.481916	0.504961	-0.464904	0.548473	0.563733	0.42538	0.461337	0.359034	-0.431436	0.282404	-0.497136	-0.369299	0.369696	0.361561	-0.416233	-0.600475	0.496707	0.476727	0.513164	0.428798	-0.408309	0.395229	-0.384814	0.339334	0.362559	-0.496581	0.462866	-0.417272
-0.430745	-0.449278	0.390719	0.37396	0.39278	0.295942	-0.441531	0.274052	0.327673	0.342837	0.449229	0.395767	-0.280056	0.375533	-0.395787	-0.41122	0.284376	0.289458	-0.437065	-0.238498	0.477978	0.401087	0.346631	0.354522	-0.379964	0.405864	-0.414936	0.388838	0.417407	-0.438315	0.402327	-0.393653
-0.343994	-0.390819	0.287336	0.438069	0.409768	0.404804	-0.3853	0.321557	0.347982	0.360855	0.313276	0.333124	-0.419968	0.414841	-0.383112	-0.416014	0.372576	0.34024	-0.414931	-0.380446	0.394525	0.310091	0.436059	0.317446	-0.31045	0.350191	-0.400007	0.377015	0.459819	-0.33789	0.424954	-0.449427
-0.377343	-0.407266	0.338409	0.348416	0.31507	0.418686	-0.367779	0.285367	0.358648	0.313289	0.389789	0.35792	-0.426204	0.287662	-0.455343	-0.42149	0.360027	0.389653	-0.393136	-0.299038	0.40038	0.303207	0.306188	0.332275	-0.414314	0.284733	-0.385526	0.449283	0.386407	-0.403353	0.374727	-0.366065
-0.203564	-0.42502	0.40885	0.395377	0.297109	0.301222	-0.303459	0.367735	0.362155	0.340544	0.34563	0.417944	-0.459066	0.346383	-0.388455	-0.362001	0.461907	0.368572	-0.380496	-0.394635	0.362948	0.413501	0.17676	0.322727	-0.36926	0.260536	-0.313145	0.414856	0.388796	-0.444859	0.348897	-0.293308
-0.385838	-0.414018	0.402372	0.38921	0.380433	0.42901	-0.452407	0.408012	0.444342	0.390552	0.402545	0.436972	-0.436158	0.496721	-0.398595	-0.342191	0.364472	0.342974	-0.417752	-0.387416	0.419709	0.356802	0.506716	0.401455	-0.313466	0.42614	-0.304372	0.3943	0.422337	-0.403453	0.422419	-0.417021
-0.652858	-0.30939	0.42978	0.347474	0.27667	0.468623	-0.349488	0.567903	0.299228	0.286072	0.420467	0.416888	-0.463133	0.223573	-0.342527	-0.508285	0.222126	0.290977	-0.349296	-0.365344	0.490369	0.297214	0.353728	0.480608	-0.334104	0.295557	-0.417434	0.40836	0.462023	-0.51082	0.457025	-0.303675
-0.686102	-0.488589	0.427114	0.51939	0.487847	0.431756	-0.341228	0.35083	0.36165	0.378278	0.4238	0.422802	-0.466683	0.524209	-0.418874	-0.524222	0.474991	0.470678	-0.385817	-0.411634	0.391513	0.49257	0.588524	0.440396	-0.588232	0.345277	-0.407842	0.380602	0.362202	-0.433261	0.512338	-0.602409
-0.4642	-0.393804	0.167857	0.362399	0.250508	0.394668	-0.32776	0.462385	0.37864	0.350628	0.569105	0.475064	-0.210212	0.258664	-0.41583	-0.485032	0.411888	0.293672	-0.366259	-0.0764632	0.313178	0.205321	0.475256	0.266673	-0.370179	0.275352	-0.380464	0.429167	0.36178	-0.405669	0.462457	-0.345087
-0.334469	-0.422684	0.441468	0.40275	0.41569	0.459105	-0.436179	0.437894	0.434113	0.483694	0.430047	0.428335	-0.461309	0.496743	-0.430672	-0.414295	0.384077	0.504407	-0.405186	-0.311793	0.491313	0.486828	0.514282	0.388973	-0.46413	0.499283	-0.477325	0.432592	0.446716	-0.442016	0.426768	-0.429018
-0.50368	-0.36948	0.415857	0.345112	0.461075	0.368663	-0.387275	0.417472	0.442892	0.351476	0.447891	0.374221	-0.425238	0.47246	-0.360401	-0.411591	0.418138	0.427078	-0.438534	-0.406553	0.418102	0.483508	0.418871	0.402941	-0.379736	0.324917	-0.4309	0.428609	0.445253	-0.338189	0.279507	-0.43413
-0.25842	-0.422232	0.385849	0.424076	0.349304	0.368345	-0.359666	0.321914	0.349322	0.41627	0.383873	0.411247	-0.473659	0.444716	-0.49393	-0.417672	0.431346	0.400396	-0.480241	-0.393221	0.473431	0.44927	0.294046	0.435384	-0.286391	0.332234	-0.34902	0.379248	0.356797	-0.452498	0.451207	-0.40943
-0.485446	-0.414955	0.323482	0.41022	0.403079	0.359665	-0.51188	0.490045	0.384988	0.421173	0.449281	0.426811	-0.387422	0.463049	-0.435599	-0.442514	0.334487	0.358258	-0.36071	-0.398782	0.43668	0.430746	0.45971	0.375838	-0.433936	0.559166	-0.380062	0.433108	0.493914	-0.413515	0.520086	-0.491948
-0.303683	-0.392163	0.480089	0.415336	0.485142	0.436442	-0.401733	0.412162	0.400373	0.433903	0.452644	0.443327	-0.432979	0.40567	-0.385076	-0.496351	0.448822	0.362198	-0.392499	-0.474529	0.43217	0.434154	0.421395	0.396157	-0.509885	0.355063	-0.433999	0.461734	0.463277	-0.473005	0.447669	-0.385601
-0.392667	-0.383234	0.415786	0.37949	0.459323	0.385416	-0.388358	0.334896	0.446788	0.410232	0.41134	0.348658	-0.387555	0.355138	-0.351114	-0.374898	0.39271	0.385074	-0.402713	-0.515583	0.447517	0.436046	0.484012	0.509421	-0.443137	0.349063	-0.356696	0.497213	0.375967	-0.388664	0.418431	-0.459084
-0.495471	-0.42081	0.322196	0.352984	0.39707	0.451568	-0.476196	0.477726	0.375805	0.470014	0.531555	0.378132	-0.415259	0.453959	-0.511908	-0.452187	0.47512	0.424745	-0.475114	-0.182385	0.507895	0.480965	0.471947	0.319171	-0.319315	0.415785	-0.305364	0.436349	0.466077	-0.364195	0.439303	-0.470528
-0.317721	-0.482961	0.397325	0.449203	0.467163	0.412927	-0.384525	0.410634	0.46822	0.520722	0.398038	0.440564	-0.501595	0.434802	-0.437604	-0.369435	0.478846	0.381094	-0.351542	-0.510933	0.444717	0.444889	0.442856	0.41868	-0.418402	0.399626	-0.324555	0.38757	0.34807	-0.441465	0.412173	-0.422446
-0.463691	-0.361027	0.39186	0.439671	0.473201	0.469025	-0.421391	0.394384	0.351508	0.302934	0.428821	0.41854	-0.439034	0.355426	-0.446241	-0.381243	0.329246	0.410235	-0.469431	-0.427137	0.442946	0.451824	0.435057	0.458662	-0.355961	0.497944	-0.439634	0.370243	0.323599	-0.435134	0.403444	-0.518208
-0.5314	-0.36429	0.403959	0.360949	0.500582	0.434567	-0.353817	0.426905	0.527033	0.476286	0.381104	0.389705	-0.477226	0.396857	-0.50616	-0.483748	0.445926	0.529828	-0.435491	-0.453626	0.461891	0.306503	0.432372	0.432311	-0.425843	0.402206	-0.461194	0.484281	0.383062	-0.487501	0.4691	-0.413431
-0.0842508	-0.303185	0.452883	0.40743	0.307227	0.48561	-0.234618	0.42188	0.367824	0.354117	0.335284	0.362978	-0.456361	0.240404	-0.35411	-0.502744	0.260516	0.311164	-0.384033	-0.334274	0.326784	0.463232	0.469047	0.317729	-0.500359	0.383606	-0.395993	0.334556	0.503998	-0.419972	0.422062	-0.411428
0.0190773	-0.406949	0.431165	0.342495	0.415433	0.431359	-0.364257	0.235605	0.44364	0.474977	0.45889	0.363825	-0.398815	0.442047	-0.456867	-0.268049	0.401991	0.339158	-0.403208	-0.236077	0.397424	0.211543	0.316509	0.387132	-0.371573	0.230846	-0.351928	0.360018	0.43851	-0.428002	0.381994	-0.340461
-0.286572	-0.399655	0.410305	0.467541	0.349089	0.543355	-0.460872	0.459067	0.481046	0.491844	0.446196	0.433155	-0.468032	0.544548	-0.348184	-0.393977	0.409303	0.400952	-0.384804	-0.534374	0.345687	0.437839	0.375017	0.423027	-0.374948	0.350165	-0.431141	0.416244	0.4271	-0.464328	0.444905	-0.337428
-0.200657	-0.421617	0.575636	0.444643	0.396351	0.457006	-0.371514	0.161119	0.464797	0.39152	0.530631	0.333302	-0.50295	0.375004	-0.474333	-0.488465	0.599383	0.50484	-0.52359	-0.309882	0.229291	0.340965	0.234471	0.494778	-0.36919	0.262436	-0.412208	0.448507	0.406364	-0.528748	0.448724	-0.1702
-0.244478	-0.346109	0.467984	0.423215	0.341068	0.445124	-0.331072	0.350283	0.433187	0.416104	0.429879	0.391402	-0.422337	0.362777	-0.433161	-0.395404	0.376841	0.442583	-0.360592	-0.336972	0.380767	0.338744	0.294388	0.445551	-0.446637	0.389337	-0.346378	0.348096	0.466071	-0.454114	0.378983	-0.38101
-0.413857	-0.545129	0.0892681	0.293138	0.393311	0.351055	-0.331077	0.411331	0.493544	0.430511	0.4252	0.314418	-0.278932	0.370811	-0.305345	-0.397939	0.46359	0.365536	-0.377924	-0.27713	0.263946	0.527869	0.482946	0.375191	-0.417871	0.395742	-0.466153	0.310475	0.509968	-0.324186	0.44426	-0.378311
-0.293015	-0.475046	0.705247	0.322005	0.435177	0.226305	-0.373912	-0.0268404	0.476162	0.48758	0.383575	0.298869	-0.323782	0.453577	-0.293678	-0.359187	0.673369	0.448272	-0.530251	-0.457851	0.10095	0.197226	0.369595	0.495724	-0.542016	0.127778	-0.418187	0.415625	0.40707	-0.437498	0.413818	-0.173032
-0.516362	-0.346044	0.422305	0.376146	0.301654	0.352448	-0.350761	0.405418	0.276502	0.477047	0.338431	0.362354	-0.297477	0.362361	-0.249211	-0.294081	0.51496	0.327662	-0.243628	-0.233631	0.445734	0.22593	0.392943	0.284537	-0.291281	0.36031	-0.309488	0.322307	0.389746	-0.394205	0.293935	-0.37134
-0.276058	-0.558739	0.307499	0.356503	0.385455	0.516321	-0.386558	0.322539	0.386962	0.31912	0.674839	0.290405	-0.322348	0.528079	-0.350215	-0.608046	0.473432	0.552248	-0.243822	-0.144406	0.241832	0.247094	0.357447	0.394557	-0.167694	0.327353	-0.556435	0.5902	0.362661	-0.472141	0.539503	-0.276023
-0.140066	-0.381545	0.473002	0.442346	0.449274	0.424275	-0.368136	0.137057	0.415918	0.498303	0.484472	0.404653	-0.52207	0.371244	-0.406488	-0.38506	0.595399	0.451852	-0.511191	-0.265917	0.269773	0.350276	0.375683	0.550003	-0.386499	0.248839	-0.466098	0.441581	0.46716	-0.447389	0.490219	-0.134077
-0.435218	-0.406713	0.283586	0.34871	0.24754	0.367417	-0.379373	0.463196	0.373656	0.411617	0.442886	0.375627	-0.312616	0.316949	-0.274519	-0.484663	0.287558	0.318816	-0.330909	-0.100466	0.30025	0.378382	0.451351	0.320308	-0.43798	0.352077	-0.460443	0.440681	0.351906	-0.425891	0.485008	-0.51793
-0.467384	-0.436378	0.385999	0.429104	0.466306	0.395108	-0.386274	0.381515	0.474082	0.382476	0.361432	0.41753	-0.459753	0.444724	-0.428286	-0.383253	0.398522	0.392347	-0.378355	-0.39636	0.406257	0.470988	0.375404	0.386716	-0.381418	0.324395	-0.350414	0.361797	0.443348	-0.412643	0.364143	-0.400813
-0.422823	-0.465881	0.370463	0.417186	0.431717	0.485971	-0.41428	0.428426	0.340501	0.33423	0.445177	0.490263	-0.345325	0.52742	-0.372242	-0.390399	0.410098	0.405755	-0.458029	-0.343448	0.428711	0.491397	0.377936	0.467025	-0.252149	0.426049	-0.396005	0.393874	0.426601	-0.381586	0.481347	-0.524723
-0.398351	-0.48223	0.498177	0.443403	0.475148	0.413324	-0.400767	0.355722	0.409882	0.38238	0.421799	0.455608	-0.387037	0.513256	-0.353632	-0.476866	0.440441	0.471843	-0.44694	-0.408839	0.457457	0.270925	0.378261	0.426819	-0.420844	0.435255	-0.3616	0.459444	0.410619	-0.386705	0.371784	-0.469512
-0.515811	-0.455094	0.469611	0.474127	0.34915	0.495976	-0.466914	0.430183	0.448592	0.40385	0.361499	0.389001	-0.383036	0.498265	-0.435946	-0.455042	0.436218	0.353132	-0.371667	-0.360163	0.34563	0.41827	0.446955	0.373229	-0.428163	0.350565	-0.377779	0.428215	0.429015	-0.397965	0.447057	-0.427194
-0.445758	-0.473536	0.583176	0.448575	0.480239	0.467367	-0.479667	0.294895	0.392454	0.486544	0.448049	0.458662	-0.341889	0.429453	-0.466416	-0.400814	0.277549	0.400637	-0.397532	-0.331853	0.43811	0.428041	0.550002	0.411294	-0.431248	0.39867	-0.443364	0.435701	0.431248	-0.464305	0.436585	-0.442971
-0.67165	-0.341631	0.249152	0.382645	0.30501	0.420702	-0.37948	0.307622	0.373953	0.3983	0.437629	0.43364	-0.267705	0.351295	-0.477843	-0.404477	0.325587	0.357625	-0.4139	-0.197135	0.41551	0.361769	0.32128	0.355953	-0.345913	0.435052	-0.420871	0.411129	0.424356	-0.307752	0.43723	-0.396098
-0.16103	-0.409391	0.337251	0.358011	0.340402	0.356698	-0.390468	0.30169	0.243803	0.264898	0.256935	0.383021	-0.402437	0.355329	-0.359676	-0.395327	0.348168	0.346016	-0.355486	-0.225712	0.349139	0.340515	0.222811	0.29357	-0.348442	0.353186	-0.318018	0.324871	0.275249	-0.385244	0.305766	-0.381509
-0.71918	-0.136406	0.180884	0.214995	0.357085	0.382321	-0.445924	0.38829	0.451799	0.611714	0.654855	0.470883	-0.317922	0.238339	-0.377011	-0.429216	0.354095	0.450099	-0.34268	-0.536417	0.135226	0.628977	0.320546	0.276515	-0.468038	0.274428	-0.531248	0.507956	0.548156	-0.37459	0.301552	-0.416168
-0.251222	-0.439543	0.400675	0.401544	0.423977	0.353343	-0.342049	0.423243	0.457834	0.470952	0.473232	0.37765	-0.435606	0.419558	-0.479785	-0.408324	0.439963	0.443196	-0.436533	-0.382497	0.503251	0.352886	0.467322	0.38022	-0.414047	0.540619	-0.421733	0.46588	0.388804	-0.510499	0.519384	-0.352946
-0.218487	-0.600711	-0.181866	0.0764161	0.360987	0.377221	-0.276211	0.453121	0.371307	0.557874	0.397417	0.263198	-0.284935	0.110656	0.063838	-0.280747	-0.180192	0.224038	-0.343934	-0.301464	0.112475	0.358422	0.555128	0.546479	-0.370372	0.460639	-0.41477	0.432297	0.625078	-0.176482	0.491152	-0.482161
-0.227172	-0.464971	0.25186	0.472893	0.451311	0.416147	-0.448045	0.50764	0.380389	0.550387	0.474914	0.495338	-0.462928	0.377936	-0.537533	-0.396588	0.351041	0.463264	-0.345986	-0.519368	0.457429	0.494541	0.331953	0.387006	-0.499531	0.279784	-0.435631	0.451483	0.35035	-0.401283	0.525063	-0.496215
-0.344886	-0.356823	0.39727	0.365501	0.386812	0.379399	-0.39934	0.480393	0.40099	0.399791	0.388499	0.379866	-0.438209	0.365109	-0.453925	-0.428216	0.315506	0.33374	-0.350707	-0.354266	0.390663	0.389099	0.429864	0.430514	-0.326071	0.429206	-0.433646	0.353462	0.451623	-0.350354	0.432609	-0.452646
-0.531612	-0.498712	0.348961	0.412627	0.366415	0.444257	-0.37836	0.425364	0.403412	0.38039	0.368169	0.441352	-0.338936	0.278677	-0.378454	-0.341307	0.285135	0.43207	-0.389133	-0.293073	0.451743	0.329602	0.405968	0.322344	-0.39432	0.469183	-0.444606	0.313252	0.455434	-0.312909	0.457855	-0.482746
-0.508574	-0.475104	0.372759	0.53161	0.486052	0.52943	-0.378595	0.440775	0.363497	0.499042	0.431803	0.514732	-0.527913	0.37721	-0.471636	-0.458768	0.444305	0.467408	-0.438806	-0.437267	0.483724	0.456553	0.494381	0.421432	-0.462334	0.464492	-0.44257	0.481715	0.465436	-0.43194	0.461392	-0.428458
-0.230136	-0.400184	0.447923	0.34719	0.343393	0.420561	-0.397147	0.317456	0.416372	0.353676	0.420558	0.44236	-0.446947	0.371971	-0.376675	-0.430075	0.327941	0.354066	-0.32692	-0.395491	0.328794	0.300818	0.426349	0.446125	-0.405936	0.309841	-0.324329	0.393011	0.371644	-0.332261	0.359323	-0.371197
-0.408383	-0.488336	0.26109	0.353935	0.387904	0.358005	-0.423218	0.450548	0.370457	0.316386	0.332898	0.412214	-0.351832	0.398196	-0.406217	-0.335918	0.315336	0.340826	-0.463485	-0.45199	0.386092	0.523928	0.331309	0.407724	-0.472958	0.402153	-0.525823	0.385366	0.379132	-0.401154	0.352499	-0.340857
-0.307444	-0.455068	0.318827	0.393961	0.402549	0.343654	-0.387722	0.500336	0.449677	0.344376	0.429604	0.393975	-0.380213	0.323121	-0.428307	-0.431174	0.354682	0.343888	-0.324833	-0.234208	0.359263	0.454536	0.426677	0.383356	-0.358789	0.45428	-0.491573	0.471675	0.348311	-0.41913	0.520491	-0.487552
-0.502811	-0.48274	0.359517	0.472685	0.435889	0.476679	-0.419947	0.377311	0.360847	0.408123	0.358204	0.400394	-0.457424	0.454511	-0.479672	-0.333913	0.427064	0.459513	-0.445115	-0.406633	0.438393	0.442106	0.472198	0.463468	-0.448941	0.487711	-0.411126	0.46846	0.421304	-0.378638	0.385363	-0.562739
-0.115133	-0.453322	0.328572	0.328006	0.489633	0.391704	-0.385915	0.241721	0.599848	0.370331	0.531609	0.311911	-0.453182	0.562063	-0.304437	-0.393703	0.438022	0.389791	-0.584035	-0.328511	0.445533	0.449752	0.277019	0.431507	-0.34796	0.432125	-0.554486	0.326248	0.2968	-0.316868	0.507747	-0.6202
-0.451369	-0.301153	0.356922	0.484636	0.305024	0.310964	-0.197231	0.104894	0.252163	0.381589	0.59193	0.400263	-0.562507	0.160296	-0.413808	-0.602477	0.582143	0.520441	-0.469419	-0.249777	0.253599	0.357312	0.0788988	0.598456	-0.237774	0.5133	-0.318466	0.534195	0.325683	-0.58318	0.45608	0.00887262
-0.18468	-0.439662	0.416836	0.338717	0.357759	0.430052	-0.340927	0.313939	0.435164	0.425682	0.363083	0.443522	-0.431007	0.363574	-0.330995	-0.465028	0.487284	0.467204	-0.383504	-0.438609	0.413933	0.360897	0.347549	0.436329	-0.343601	0.405498	-0.442565	0.354729	0.314669	-0.493294	0.373528	-0.422244
-0.235104	-0.447412	0.429249	0.481565	0.330849	0.418207	-0.408308	0.444226	0.468943	0.40498	0.43118	0.410367	-0.374318	0.442441	-0.382491	-0.482173	0.438728	0.453178	-0.372623	-0.31514	0.308996	0.342925	0.450457	0.448589	-0.410205	0.482055	-0.481779	0.4586	0.417369	-0.424356	0.501247	-0.396069
-0.331658	-0.403249	0.414013	0.479626	0.370172	0.39373	-0.556607	0.44041	0.345552	0.556308	0.382032	0.369639	-0.444766	0.537861	-0.365606	-0.460686	0.455156	0.427548	-0.515918	-0.545226	0.482284	0.344837	0.338145	0.357967	-0.483446	0.230552	-0.290165	0.458085	0.376721	-0.45704	0.492642	-0.286814
-0.187227	-0.337295	0.483521	0.47063	0.461774	0.47384	-0.389839	0.295321	0.495663	0.5068	0.441535	0.365071	-0.41753	0.379983	-0.443581	-0.498189	0.351149	0.40959	-0.48856	-0.468559	0.391876	0.298508	0.395537	0.485338	-0.32255	0.360316	-0.441018	0.347251	0.4814	-0.489049	0.470222	-0.392414
-0.302007	-0.318219	0.284478	0.428221	0.433327	0.413198	-0.395959	0.273887	0.391391	0.410163	0.345072	0.457215	-0.426944	0.470927	-0.305913	-0.349358	0.589933	0.375185	-0.385812	-0.575599	0.277557	0.366481	0.28248	0.437458	-0.364149	0.29847	-0.261552	0.463335	0.387377	-0.389638	0.442831	-0.425766
-0.436413	-0.348729	0.598194	0.4255	0.40665	0.577297	-0.491692	0.170519	0.617723	0.37316	0.321436	0.498683	-0.326777	0.359563	-0.456261	-0.289694	0.23046	0.542071	-0.426725	-0.607723	0.544086	0.508518	0.420551	0.56427	-0.352208	0.466148	-0.491219	0.318034	0.319675	-0.515323	0.356634	-0.450593
-0.279393	-0.441208	0.380205	0.502793	0.432912	0.492385	-0.435796	0.402745	0.453731	0.504	0.499983	0.496111	-0.339542	0.301172	-0.312049	-0.349412	0.342655	0.42344	-0.4272	-0.440158	0.47821	0.366128	0.403798	0.384575	-0.506003	0.489206	-0.521751	0.42671	0.361651	-0.400335	0.447416	-0.45593
-0.407799	-0.310391	0.494392	0.356876	0.277097	0.362315	-0.368058	0.389222	0.326692	0.272865	0.424123	0.414114	-0.47878	0.242231	-0.474838	-0.36371	0.345166	0.402887	-0.314581	-0.326897	0.339952	0.353163	0.472504	0.440706	-0.456291	0.322129	-0.406913	0.42797	0.428733	-0.425976	0.265083	-0.130364
-0.409193	-0.351192	0.3575	0.384162	0.307134	0.377411	-0.333101	0.370023	0.388528	0.382486	0.344478	0.331297	-0.335926	0.375286	-0.410047	-0.421517	0.345653	0.436024	-0.455956	-0.41966	0.334265	0.402482	0.434878	0.38983	-0.379604	0.318689	-0.450237	0.411028	0.458288	-0.447878	0.38424	-0.393234
-0.336939	-0.403935	0.316859	0.387587	0.419651	0.405063	-0.453055	0.435442	0.424844	0.471536	0.40914	0.468089	-0.435358	0.377145	-0.372179	-0.392638	0.445308	0.388398	-0.325369	-0.473001	0.431764	0.383588	0.512147	0.326756	-0.341529	0.477304	-0.433011	0.392141	0.479268	-0.411072	0.461005	-0.483049
-0.54468	-0.343228	0.351207	0.411531	0.414594	0.470652	-0.510756	0.34241	0.406799	0.404839	0.319715	0.350013	-0.344366	0.31921	-0.374184	-0.416344	0.366639	0.504464	-0.509577	-0.343135	0.400635	0.360661	0.521058	0.379452	-0.447288	0.494025	-0.414708	0.503594	0.429069	-0.4193	0.427834	-0.524549
-0.586655	-0.46967	0.473245	0.449475	0.415035	0.368488	-0.404251	0.41312	0.457375	0.400795	0.454801	0.446714	-0.472773	0.378747	-0.465861	-0.460119	0.469035	0.496814	-0.480659	-0.51368	0.459556	0.370469	0.368512	0.457971	-0.303819	0.383304	-0.343219	0.422401	0.414081	-0.470564	0.413956	-0.393914
-0.434092	-0.370235	0.133829	0.427646	0.397388	0.371786	-0.398138	0.398853	0.283853	0.351715	0.406442	0.299426	-0.368512	0.435713	-0.333071	-0.356983	0.247119	0.364418	-0.456569	-0.412515	0.359522	0.419678	0.449092	0.461262	-0.321193	0.471164	-0.414561	0.31129	0.319484	-0.426886	0.313504	-0.33566
-0.237741	-0.416946	0.425105	0.417768	0.307279	0.40304	-0.438528	0.399274	0.376646	0.314403	0.364164	0.382329	-0.435955	0.366193	-0.412877	-0.398958	0.361067	0.379752	-0.340561	-0.4065	0.374879	0.381372	0.421361	0.461805	-0.385533	0.396051	-0.416422	0.353498	0.334082	-0.379665	0.375495	-0.327914
-0.397592	-0.484205	0.314225	0.491446	0.466853	0.426816	-0.465554	0.434602	0.419971	0.445215	0.464081	0.476783	-0.521579	0.395743	-0.383477	-0.437666	0.408256	0.377271	-0.464605	-0.480974	0.420285	0.494344	0.46705	0.508269	-0.461525	0.507497	-0.425063	0.369887	0.423407	-0.41411	0.382659	-0.475125
-0.160545	-0.304718	0.328357	0.467396	0.312559	0.300457	-0.242009	0.359751	0.423792	0.433678	0.373425	0.276054	-0.404443	0.446749	-0.306107	-0.374998	0.438227	0.236442	-0.359956	-0.166895	0.308047	0.239723	0.250737	0.303105	-0.353102	0.311712	-0.381488	0.438792	0.337223	-0.291036	0.3527	-0.298165
-0.706892	-0.334308	0.444658	0.447701	0.282532	0.338601	-0.174123	0.295434	0.335171	0.45117	0.413097	0.276574	-0.392523	0.287684	-0.531619	-0.477166	0.24823	0.430147	-0.352887	-0.428355	0.316834	0.340901	0.303013	0.418065	-0.476737	0.313148	-0.4296	0.387918	0.410878	-0.325976	0.342477	-0.0802521
-0.436567	-0.459926	0.476241	0.51038	0.420749	0.424926	-0.388332	0.431135	0.49614	0.487849	0.42067	0.413982	-0.391541	0.440234	-0.437799	-0.485105	0.385054	0.379183	-0.46976	-0.416942	0.515589	0.438147	0.40069	0.425035	-0.405141	0.337992	-0.409915	0.501531	0.362701	-0.463627	0.474933	-0.443974
-0.571084	-0.458158	0.351313	0.435736	0.481855	0.354846	-0.474465	0.437787	0.380921	0.474558	0.356088	0.486903	-0.463504	0.480363	-0.456905	-0.439225	0.39989	0.477435	-0.448246	-0.485724	0.493006	0.366184	0.434378	0.47783	-0.378525	0.396437	-0.401132	0.375232	0.440648	-0.407014	0.483064	-0.394838
-0.392343	-0.341684	0.322359	0.469158	0.416279	0.495684	-0.413071	0.30108	0.427096	0.357402	0.476662	0.375191	-0.359835	0.316608	-0.494267	-0.362539	0.408422	0.426395	-0.347834	-0.408552	0.406239	0.415927	0.325236	0.329324	-0.448626	0.392225	-0.45156	0.415459	0.420732	-0.462352	0.441409	-0.473342
-0.397744	-0.434704	0.352835	0.408243	0.439461	0.408672	-0.308318	0.380006	0.417835	0.417847	0.444598	0.343414	-0.411015	0.364853	-0.415868	-0.465189	0.354584	0.352915	-0.388225	-0.502577	0.472222	0.468699	0.31447	0.367954	-0.388121	0.470114	-0.381655	0.382265	0.465458	-0.438906	0.427336	-0.472905
-0.225094	-0.414288	0.249821	0.408468	0.377965	0.471516	-0.414665	0.458891	0.238494	0.50129	0.477395	0.452187	-0.395671	0.313874	-0.480652	-0.432986	0.358831	0.450798	-0.369811	-0.352241	0.36188	0.449887	0.202655	0.326063	-0.463292	0.405246	-0.524094	0.382026	0.537268	-0.333349	0.434634	-0.412154
-0.453675	-0.403336	0.404272	0.374845	0.476202	0.452177	-0.440891	0.460859	0.44473	0.375447	0.377018	0.412311	-0.419507	0.425549	-0.427641	-0.514417	0.500143	0.383816	-0.466544	-0.454775	0.473228	0.453637	0.411111	0.499451	-0.461838	0.449252	-0.43382	0.525574	0.507399	-0.440559	0.393795	-0.427027
-0.383356	-0.452988	0.417867	0.369323	0.434936	0.448225	-0.507585	0.374409	0.392079	0.462142	0.367844	0.51662	-0.39497	0.493096	-0.487653	-0.399133	0.332305	0.386906	-0.452847	-0.344253	0.524149	0.485909	0.416338	0.44804	-0.391835	0.490928	-0.450013	0.469245	0.495515	-0.404945	0.419899	-0.470002
-0.473732	-0.358348	0.352685	0.295821	0.331715	0.328326	-0.362348	0.352484	0.423973	0.323324	0.350691	0.368008	-0.408457	0.308908	-0.333488	-0.486734	0.282948	0.401699	-0.447026	-0.483505	0.417714	0.298774	0.401022	0.289151	-0.302834	0.436891	-0.277262	0.404371	0.41939	-0.342695	0.35235	-0.55121
-0.496129	-0.135148	0.253354	0.456889	0.245104	0.325002	-0.108542	0.138859	0.376572	0.104639	0.350415	0.36	-0.433559	-0.00381333	-0.276398	-0.129082	0.396425	0.376118	-0.26445	-0.0463661	0.0544324	0.18936	0.0812681	0.422129	-0.320823	0.338632	-0.128087	0.289834	0.228356	-0.293354	0.235474	0.0582275
-0.624289	-0.505516	0.312197	0.468034	0.388716	0.450932	-0.395786	0.435447	0.324546	0.330187	0.461992	0.415811	-0.325354	0.465606	-0.493329	-0.350766	0.423848	0.463453	-0.515585	-0.431977	0.394973	0.431811	0.360913	0.42748	-0.305399	0.422854	-0.477837	0.32122	0.431182	-0.471156	0.394677	-0.47135
-0.295202	-0.373821	0.40504	0.445455	0.335618	0.341142	-0.420636	0.454387	0.430384	0.470747	0.47138	0.425008	-0.486468	0.435943	-0.477849	-0.46098	0.335549	0.409383	-0.376684	-0.401724	0.367157	0.329694	0.390314	0.416593	-0.480281	0.372376	-0.352936	0.435423	0.386604	-0.448094	0.416892	-0.365614
-0.139835	-0.536753	0.489491	0.326007	0.479102	0.486591	-0.335381	0.134927	0.392417	0.462461	0.58291	0.309575	-0.286927	0.540822	-0.290049	-0.54356	0.548949	0.508598	-0.555969	-0.0992555	0.168349	0.269977	0.166653	0.377037	-0.161265	0.172334	-0.331737	0.509837	0.350729	-0.555263	0.443244	-0.232251
-0.526755	-0.44023	0.468601	0.474851	0.481349	0.486138	-0.477009	0.500514	0.469544	0.38967	0.399319	0.469394	-0.486911	0.517534	-0.374107	-0.413695	0.425912	0.383947	-0.417875	-0.492176	0.427834	0.475682	0.421796	0.43138	-0.428706	0.430734	-0.417751	0.469215	0.420811	-0.388819	0.469689	-0.513006
-0.493204	-0.425559	0.313108	0.399423	0.283243	0.350004	-0.410638	0.467843	0.360047	0.34674	0.3295	0.336042	-0.310006	0.258442	-0.338066	-0.371926	0.18983	0.311519	-0.300959	-0.420415	0.365015	0.332804	0.423074	0.36503	-0.42397	0.397088	-0.398841	0.32429	0.311382	-0.467749	0.428716	-0.546288
-0.475494	-0.331013	0.273347	0.330149	0.304852	0.340282	-0.368366	0.430747	0.377159	0.344888	0.352189	0.308345	-0.359532	0.436935	-0.369442	-0.341915	0.216786	0.319669	-0.346992	-0.482467	0.380847	0.328202	0.4734	0.311786	-0.350571	0.384998	-0.263383	0.411135	0.262786	-0.274952	0.226907	-0.455465
-0.28667	-0.339984	0.44485	0.328754	0.335686	0.269346	-0.151884	0.222353	0.235334	0.299035	0.284643	0.317277	-0.331096	0.180878	-0.361169	-0.194843	0.127302	0.270352	-0.211077	-0.234182	0.216048	0.361651	0.250695	0.332035	-0.328881	0.226192	-0.0412119	0.329284	0.101641	-0.304069	0.242342	-0.102311
-0.598935	-0.234862	0.335178	0.286596	0.377301	0.366224	-0.300832	0.447823	0.148088	0.323313	0.364766	0.407868	-0.298139	0.209079	-0.27084	-0.244665	0.406912	0.277723	-0.289278	-0.292404	0.225638	0.29074	0.224778	0.348926	-0.394397	0.298192	-0.472216	0.41553	0.289354	-0.385217	0.275743	-0.179804
-0.409055	-0.366882	0.445045	0.399613	0.490304	0.422467	-0.380776	0.478219	0.341426	0.326955	0.401583	0.412836	-0.399264	0.464958	-0.328745	-0.45246	0.373995	0.357123	-0.491891	-0.340175	0.406579	0.44862	0.420905	0.428061	-0.428028	0.420098	-0.330545	0.465436	0.497686	-0.50643	0.452629	-0.534494
-0.356892	-0.347769	0.286194	0.354975	0.328217	0.302991	-0.365718	0.357396	0.388384	0.288299	0.284133	0.403827	-0.333662	0.37237	-0.358691	-0.291836	0.461375	0.379487	-0.314588	-0.316705	0.303114	0.313753	0.393711	0.332379	-0.313383	0.283964	-0.266718	0.310058	0.460714	-0.411162	0.416923	-0.360568
-0.322238	-0.472525	0.427571	0.414174	0.398772	0.411801	-0.382932	0.435593	0.398124	0.483824	0.405963	0.42351	-0.515264	0.422629	-0.40826	-0.498758	0.458558	0.420358	-0.515899	-0.384821	0.450971	0.393777	0.398911	0.431856	-0.360982	0.402504	-0.466531	0.468968	0.47938	-0.490864	0.514612	-0.451017
-0.494471	-0.498889	0.277707	0.383707	0.471438	0.370681	-0.483516	0.512162	0.485686	0.349129	0.328663	0.346798	-0.443688	0.383723	-0.431768	-0.434695	0.365108	0.337925	-0.459421	-0.416449	0.429802	0.406113	0.357583	0.417705	-0.440393	0.36908	-0.428861	0.377628	0.488209	-0.475075	0.417084	-0.582092
-0.336673	-0.433527	0.294561	0.49785	0.487779	0.532633	-0.425815	0.421069	0.560779	0.432653	0.364852	0.381158	-0.496654	0.421355	-0.426475	-0.500024	0.346108	0.384463	-0.466723	-0.467112	0.398483	0.528833	0.427548	0.425068	-0.504516	0.29729	-0.394579	0.518238	0.383368	-0.382821	0.368881	-0.554085
-0.199573	-0.404454	0.367618	0.402035	0.351729	0.435664	-0.316319	0.12722	0.448426	0.484094	0.522739	0.368574	-0.43963	0.396123	-0.434598	-0.429197	0.593223	0.468329	-0.419544	-0.398937	0.256695	0.388541	0.319671	0.475665	-0.348104	0.320935	-0.451733	0.440582	0.449775	-0.432815	0.394143	-0.235657
0.00966967	-0.546299	0.614364	0.470566	0.562898	0.611026	-0.554756	0.402486	0.477983	0.36943	0.331696	0.266245	-0.207933	0.216247	-0.536271	-0.523171	0.338491	0.446632	-0.169815	-0.597246	0.31614	0.416559	0.319882	0.436318	-0.352446	0.334705	-0.611646	0.365706	0.301297	-0.563652	0.535315	-0.314585
-0.390229	-0.336621	0.237021	0.44512	0.39336	0.41826	-0.400982	0.326191	0.309484	0.339054	0.305261	0.312904	-0.328605	0.363273	-0.421292	-0.398777	0.273786	0.411266	-0.34877	-0.384486	0.391217	0.315349	0.408985	0.346127	-0.382779	0.387105	-0.401441	0.385064	0.377143	-0.380734	0.402329	-0.489757
-0.266397	-0.400397	0.425371	0.391042	0.419234	0.387291	-0.319544	0.259772	0.425771	0.349618	0.396946	0.351492	-0.363576	0.29979	-0.37214	-0.389497	0.458142	0.357731	-0.30219	-0.371878	0.4528	0.447149	0.342305	0.368051	-0.528923	0.399077	-0.415534	0.354456	0.313744	-0.409445	0.416781	-0.424172
-0.41068	-0.387411	0.322766	0.297345	0.369975	0.502152	-0.378407	0.438183	0.462517	0.53201	0.379793	0.517429	-0.436912	0.337733	-0.35495	-0.231861	0.300078	0.441489	-0.45528	-0.440383	0.412742	0.534009	0.476638	0.392896	-0.460432	0.379899	-0.567215	0.383915	0.397866	-0.386084	0.304677	-0.332127
-0.339821	-0.462159	0.364911	0.476465	0.527516	0.4716	-0.45581	0.52239	0.455867	0.400421	0.415639	0.448299	-0.400276	0.442523	-0.509713	-0.560943	0.385523	0.44714	-0.434091	-0.557793	0.473346	0.500532	0.466127	0.473805	-0.465483	0.489837	-0.520552	0.512797	0.408987	-0.492531	0.547818	-0.42444
-0.419131	-0.378806	0.37289	0.445989	0.457725	0.444165	-0.485189	0.504857	0.386643	0.460411	0.418189	0.423022	-0.369743	0.38988	-0.469521	-0.455527	0.343666	0.372663	-0.36693	-0.404363	0.411784	0.411997	0.5112	0.484088	-0.446175	0.354132	-0.338629	0.379265	0.440327	-0.45836	0.398257	-0.461131
-0.582758	-0.396399	0.270491	0.313157	0.380705	0.38296	-0.451483	0.383196	0.202011	0.276081	0.447259	0.402417	-0.344785	0.457009	-0.265111	-0.331123	0.348945	0.310281	-0.440581	-0.217188	0.363964	0.408794	0.37226	0.327123	-0.365769	0.527154	-0.367691	0.335673	0.449174	-0.340447	0.366014	-0.558718
-0.299524	-0.402939	0.130702	0.38692	0.38172	0.38812	-0.404687	0.254665	0.725058	0.473624	0.338345	0.407522	-0.30354	0.31337	-0.386375	-0.465913	0.607007	0.358416	-0.380843	-0.232201	0.138555	0.468316	0.343981	0.248399	-0.53049	0.167643	-0.337285	0.37312	0.484825	-0.303486	0.419799	-0.556378
-0.231273	-0.352421	0.455276	0.446709	0.493982	0.521263	-0.451952	0.482592	0.48795	0.399485	0.473473	0.429311	-0.389274	0.453464	-0.420023	-0.425393	0.324047	0.403248	-0.461589	-0.514189	0.347471	0.449914	0.452228	0.482005	-0.438188	0.4219	-0.368943	0.465295	0.410533	-0.355112	0.383213	-0.425018
-0.0707854	-0.314255	0.400058	0.347247	0.314369	0.4283	-0.39564	0.182755	0.392693	0.43081	0.466343	0.362505	-0.38173	0.312578	-0.46892	-0.465774	0.536459	0.466619	-0.47121	-0.22384	0.197344	0.336665	0.312877	0.540622	-0.267297	0.325588	-0.400456	0.380227	0.401616	-0.445406	0.514252	-0.142053
-0.117526	-0.320634	0.472089	0.338025	0.410452	0.406928	-0.344331	0.306151	0.3522	0.363695	0.362136	0.37133	-0.376825	0.393546	-0.427242	-0.308342	0.327584	0.376465	-0.452135	-0.201571	0.259876	0.349273	0.43777	0.231864	-0.403581	0.366883	-0.304028	0.388313	0.277352	-0.340379	0.408997	-0.458522
-0.276578	-0.305968	0.379214	0.453296	0.400041	0.440975	-0.312585	0.357403	0.430912	0.474881	0.430377	0.419097	-0.44839	0.36673	-0.414182	-0.379169	0.343655	0.385296	-0.384473	-0.371431	0.390876	0.408153	0.234465	0.435471	-0.393099	0.415047	-0.393146	0.367325	0.374157	-0.375775	0.367845	-0.420627
-0.423285	-0.463027	0.179306	0.443551	0.359286	0.361592	-0.442228	0.37316	0.367643	0.35643	0.407469	0.408432	-0.356851	0.352866	-0.357353	-0.360436	0.379841	0.458384	-0.412937	-0.292062	0.476652	0.40632	0.411058	0.372385	-0.362159	0.450668	-0.40234	0.409531	0.455477	-0.352865	0.466732	-0.498305
-0.116285	-0.379576	0.47025	0.332728	0.35971	0.484507	-0.378266	0.30244	0.463678	0.46498	0.451222	0.378821	-0.382053	0.416816	-0.464724	-0.402646	0.588637	0.490467	-0.506494	-0.404714	0.388923	0.493892	0.480274	0.433453	-0.336242	0.36938	-0.392936	0.427999	0.39904	-0.489119	0.528482	-0.592491
-0.326563	-0.399847	0.444878	0.423799	0.406898	0.447184	-0.433674	0.485612	0.393067	0.366803	0.406357	0.469884	-0.422755	0.510294	-0.386553	-0.411999	0.408539	0.491495	-0.364176	-0.300127	0.443351	0.332659	0.429807	0.423831	-0.446487	0.418893	-0.477691	0.488229	0.424322	-0.487426	0.480931	-0.362831
-0.366439	-0.314931	0.3628	0.430254	0.400085	0.384373	-0.493386	0.424313	0.342892	0.376578	0.425911	0.378828	-0.41975	0.468611	-0.383523	-0.470884	0.258189	0.417684	-0.409099	-0.481828	0.457021	0.325675	0.405599	0.395789	-0.340741	0.394425	-0.381627	0.409308	0.412272	-0.438804	0.385836	-0.49903
-0.328754	-0.425755	0.346495	0.489596	0.414991	0.35328	-0.383228	0.349429	0.341089	0.343472	0.405117	0.365826	-0.379712	0.446229	-0.385148	-0.41641	0.371376	0.410978	-0.386123	-0.318102	0.45281	0.3519	0.352948	0.458269	-0.35898	0.448983	-0.353239	0.441294	0.323494	-0.405456	0.408576	-0.438377
0.0829481	-0.399448	0.368162	0.299123	0.361401	0.298749	-0.405539	0.301059	0.342708	0.473054	0.384836	0.37145	-0.479041	0.444719	-0.354191	-0.283532	0.510474	0.309934	-0.451084	-0.22026	0.373901	0.432982	0.31998	0.2991	-0.376029	0.152299	-0.281337	0.340539	0.34095	-0.406438	0.449431	-0.227844
-0.451029	-0.441536	0.468866	0.426861	0.387583	0.423503	-0.418072	0.409276	0.381233	0.426525	0.437908	0.456414	-0.446991	0.43827	-0.400782	-0.444938	0.328699	0.349103	-0.390667	-0.423316	0.4665	0.37331	0.460245	0.390386	-0.350189	0.402273	-0.407508	0.343913	0.399427	-0.361915	0.420987	-0.478139
-0.41849	-0.330768	0.456594	0.446108	0.330186	0.462917	-0.41327	0.355775	0.375	0.427449	0.345443	0.427633	-0.445292	0.4505	-0.363222	-0.416364	0.381684	0.429049	-0.3525	-0.320719	0.406652	0.38934	0.346844	0.447515	-0.421881	0.333196	-0.309733	0.405141	0.437587	-0.377052	0.441152	-0.382829
-0.108272	-0.23547	0.256509	0.265506	0.33488	0.220743	-0.13748	0.392406	0.33983	0.177101	0.380593	0.329966	-0.307113	0.238253	-0.355105	-0.266964	0.31023	0.186119	-0.315096	-0.281431	0.232922	0.193892	0.318359	0.300145	-0.225144	0.307418	-0.225629	0.247804	0.148145	-0.291472	0.308239	-0.183483
-0.333619	-0.347761	0.29264	0.312355	0.378282	0.482394	-0.292489	0.48316	0.336205	0.587222	0.499008	0.498532	-0.449139	0.461935	-0.451178	-0.285418	0.36874	0.384052	-0.28666	-0.361312	0.338689	0.295846	0.386942	0.353393	-0.413921	0.345539	-0.288012	0.406719	0.406804	-0.317094	0.442136	-0.256397
0.22453	-0.32357	0.561661	0.220888	0.466891	0.410561	-0.482985	0.012676	0.452475	0.499831	0.518168	0.349075	-0.413589	0.41772	-0.293816	-0.358697	0.768968	0.466794	-0.43608	-0.518965	0.420172	0.261717	0.166078	0.552184	-0.404649	0.199464	-0.494691	0.400738	0.320428	-0.431904	0.355856	-0.118607
-0.368805	-0.403336	0.331884	0.445448	0.392206	0.533844	-0.45177	0.338628	0.503217	0.492626	0.466329	0.50888	-0.472443	0.456302	-0.545652	-0.421783	0.518055	0.461845	-0.468546	-0.373266	0.446609	0.40182	0.33479	0.5487	-0.362592	0.401017	-0.428154	0.476469	0.506402	-0.45166	0.543857	-0.455234
-0.209642	-0.426129	0.328079	0.373063	0.378299	0.390099	-0.407232	0.268114	0.316743	0.422901	0.384385	0.380751	-0.447856	0.401373	-0.490847	-0.383175	0.383045	0.539269	-0.473004	-0.421727	0.237714	0.414447	0.405292	0.402894	-0.29338	0.466588	-0.408388	0.374991	0.480627	-0.424362	0.343249	-0.347156
-0.205409	-0.296341	0.272447	0.405223	0.391857	0.363178	-0.334261	0.397551	0.442904	0.403829	0.170928	0.381099	-0.381638	0.420376	-0.42834	-0.338668	0.437258	0.425359	-0.396542	-0.381881	0.361888	0.365577	0.295877	0.328956	-0.392266	0.423434	-0.386405	0.344597	0.46965	-0.39205	0.411025	-0.498864
-0.429295	-0.456081	0.300474	0.4192	0.451542	0.369397	-0.408865	0.521192	0.388587	0.390227	0.458326	0.437381	-0.378599	0.373031	-0.374864	-0.324113	0.416017	0.389082	-0.393619	-0.436283	0.407945	0.439378	0.438772	0.413355	-0.453039	0.450489	-0.473104	0.334088	0.485685	-0.393572	0.454034	-0.476443
-0.396282	-0.223848	0.278406	0.319247	0.262478	0.341828	-0.226364	0.18095	0.347041	0.272199	0.288857	0.249448	-0.403539	0.419314	-0.353392	-0.303334	0.216947	0.314904	-0.275214	-0.340844	0.3618	0.246601	0.259146	0.243822	-0.349135	0.333447	-0.312464	0.352209	0.328261	-0.322844	0.252245	-0.260653
-0.36199	-0.429263	0.343318	0.50476	0.478156	0.479207	-0.461703	0.424294	0.481989	0.498911	0.340622	0.453523	-0.408211	0.405052	-0.467563	-0.416931	0.288209	0.440196	-0.470103	-0.537497	0.505096	0.492366	0.412198	0.37848	-0.425582	0.406894	-0.438391	0.420259	0.443503	-0.392428	0.525259	-0.545628
-0.0980261	-0.296601	0.516501	0.46229	0.333153	0.379506	-0.317279	0.214495	0.325579	0.420141	0.394759	0.310558	-0.502525	0.345302	-0.389935	-0.422137	0.474165	0.471185	-0.425478	-0.093688	0.340709	0.257321	0.325759	0.408753	-0.276883	0.33233	-0.365614	0.39587	0.407469	-0.503405	0.438915	0.0160415
-0.429437	-0.457924	0.37153	0.386976	0.389789	0.469072	-0.467971	0.456015	0.452275	0.41152	0.401165	0.443263	-0.418259	0.379101	-0.360552	-0.354425	0.449358	0.378884	-0.431691	-0.481491	0.421239	0.485944	0.476383	0.434668	-0.379789	0.408713	-0.389938	0.421787	0.428503	-0.435415	0.445151	-0.412262
-0.367721	-0.401201	0.216979	0.317297	0.322554	0.44053	-0.397148	0.343909	0.463352	0.356332	0.336235	0.3773	-0.424776	0.375101	-0.350009	-0.350307	0.333823	0.366526	-0.304025	-0.34141	0.429646	0.456774	0.225246	0.441007	-0.315647	0.359159	-0.370737	0.380457	0.418715	-0.354115	0.480179	-0.397665
-0.577768	-0.395588	0.337605	0.423576	0.436662	0.372384	-0.508212	0.456582	0.386091	0.384498	0.389078	0.492998	-0.375435	0.481217	-0.41742	-0.437986	0.275492	0.39109	-0.44128	-0.4536	0.513569	0.44972	0.545194	0.462497	-0.412111	0.521952	-0.487026	0.388877	0.509327	-0.461736	0.444052	-0.565915
-0.526403	-0.376863	0.432115	0.46523	0.409393	0.443401	-0.417021	0.360561	0.318147	0.497556	0.46184	0.472201	-0.414432	0.440013	-0.376764	-0.393375	0.439858	0.438533	-0.489347	-0.51885	0.464621	0.401495	0.480941	0.428442	-0.351928	0.48756	-0.455141	0.503447	0.440214	-0.516145	0.485417	-0.546424
-0.505771	-0.464926	0.408871	0.467735	0.465825	0.360989	-0.490945	0.491319	0.4249	0.459628	0.492233	0.356668	-0.46481	0.384984	-0.427282	-0.458702	0.419881	0.444355	-0.410201	-0.379532	0.319574	0.430863	0.327177	0.459104	-0.429757	0.441039	-0.33893	0.439568	0.413531	-0.415569	0.446607	-0.378041
-0.367666	-0.509939	0.489235	0.416674	0.476901	0.388601	-0.454775	0.447253	0.452654	0.456127	0.396755	0.428438	-0.495471	0.47249	-0.494513	-0.510915	0.428437	0.450379	-0.415239	-0.439086	0.420565	0.449045	0.406983	0.442749	-0.41031	0.394127	-0.345591	0.39661	0.468071	-0.409806	0.419982	-0.518078
-0.0493746	-0.497898	0.352606	0.328612	0.273541	0.39792	-0.536122	0.56137	0.574476	0.441226	0.457102	0.423447	-0.394947	0.565516	-0.527447	-0.408239	0.586816	0.488525	-0.56247	-0.293954	0.377454	0.356741	0.57836	0.382714	-0.333128	0.464255	-0.463838	0.371455	0.599285	-0.41298	0.363817	-0.370406
-0.334668	-0.335885	0.252817	0.339745	0.446337	0.334907	-0.410834	0.316192	0.400258	0.258344	0.336269	0.445841	-0.294723	0.441957	-0.348457	-0.346818	0.3529	0.367909	-0.474279	-0.364203	0.307639	0.336947	0.346041	0.418557	-0.339951	0.435415	-0.330828	0.414134	0.409157	-0.447739	0.381955	-0.394748
-0.272941	-0.394545	0.306929	0.323618	0.441476	0.361411	-0.456451	0.452978	0.314265	0.253311	0.464312	0.381336	-0.473284	0.394064	-0.433258	-0.460557	0.248205	0.347927	-0.35825	-0.335015	0.411515	0.311756	0.393595	0.332956	-0.448305	0.394481	-0.31875	0.441089	0.319343	-0.474434	0.457128	-0.307958
-0.320036	-0.479764	0.415171	0.489983	0.470399	0.487862	-0.481943	0.413473	0.462877	0.442628	0.402146	0.50166	-0.41499	0.488687	-0.44857	-0.46392	0.517906	0.419173	-0.383652	-0.520998	0.463509	0.481531	0.431838	0.445944	-0.369569	0.450268	-0.374621	0.429099	0.423055	-0.390339	0.408696	-0.377913
-0.322552	-0.390053	0.321875	0.35912	0.415186	0.366049	-0.400235	0.349489	0.457945	0.439831	0.468942	0.327875	-0.447263	0.506533	-0.397551	-0.354605	0.412057	0.389941	-0.382974	-0.336188	0.30766	0.490696	0.385449	0.355735	-0.384602	0.446002	-0.506358	0.346922	0.398232	-0.345474	0.328201	-0.317849
-0.464976	-0.374177	0.313241	0.478977	0.483632	0.399579	-0.461834	0.391765	0.44605	0.455727	0.430704	0.405804	-0.446252	0.420037	-0.398278	-0.424487	0.481329	0.503696	-0.362279	-0.474416	0.40495	0.40673	0.347123	0.48891	-0.437892	0.338292	-0.400194	0.484749	0.465878	-0.454245	0.440824	-0.430815
-0.403238	-0.453115	0.335468	0.438987	0.378387	0.514228	-0.555126	0.494909	0.351246	0.452275	0.509491	0.437373	-0.383108	0.51101	-0.393274	-0.400867	0.460577	0.394633	-0.340891	-0.44143	0.3793	0.410852	0.38535	0.3952	-0.443974	0.449406	-0.49318	0.504821	0.484884	-0.418466	0.493669	-0.410784
-0.246013	-0.369078	0.435352	0.446894	0.437366	0.473847	-0.36342	0.424004	0.274974	0.49376	0.343757	0.450858	-0.467659	0.354257	-0.38678	-0.390077	0.399454	0.398282	-0.296702	-0.424258	0.328236	0.307447	0.33883	0.43121	-0.398485	0.34137	-0.458978	0.375125	0.380239	-0.468951	0.378105	-0.372091
-0.459545	-0.413588	0.445341	0.389488	0.427624	0.518895	-0.423149	0.419258	0.447262	0.40088	0.374828	0.481308	-0.460074	0.487774	-0.465022	-0.51497	0.47262	0.42875	-0.419598	-0.509588	0.512768	0.493105	0.474086	0.477018	-0.448769	0.377023	-0.426043	0.490077	0.451012	-0.451218	0.496641	-0.503639
-0.381808	-0.40304	0.30761	0.458789	0.434148	0.406934	-0.409337	0.41185	0.405853	0.398547	0.29256	0.369407	-0.424845	0.384569	-0.42188	-0.371573	0.371839	0.395679	-0.302595	-0.297927	0.403654	0.417585	0.41736	0.399289	-0.448322	0.455171	-0.325537	0.374886	0.338008	-0.394212	0.401308	-0.563558
-0.350137	-0.294688	0.289863	0.37773	0.526241	0.4093	-0.395746	0.424519	0.355886	0.390586	0.411936	0.420171	-0.327668	0.383258	-0.396129	-0.371688	0.305945	0.356327	-0.330565	-0.27581	0.354084	0.393414	0.423691	0.326405	-0.476104	0.479064	-0.365023	0.314154	0.293804	-0.403097	0.4067	-0.47294
-0.364643	-0.386821	0.420889	0.346813	0.462811	0.389908	-0.41456	0.588778	0.259799	0.569061	0.255709	0.555968	-0.504934	0.433443	-0.360126	-0.236524	0.276429	0.522296	-0.397192	-0.404501	0.321075	0.487273	0.478336	0.381695	-0.335974	0.561297	-0.613826	0.417041	0.512325	-0.416444	0.286259	-0.410912
-0.412123	-0.460158	0.449909	0.496891	0.470587	0.514356	-0.471884	0.361085	0.489542	0.499011	0.535312	0.353368	-0.39342	0.524147	-0.439779	-0.463926	0.398942	0.484593	-0.462983	-0.504062	0.378742	0.433966	0.422978	0.415809	-0.474267	0.422598	-0.501866	0.401503	0.44231	-0.419018	0.436863	-0.508031
-0.223957	-0.415805	0.443254	0.471137	0.353636	0.383518	-0.400147	0.422618	0.461938	0.394858	0.377352	0.404633	-0.424068	0.448007	-0.308901	-0.464917	0.441873	0.418379	-0.418101	-0.320939	0.497419	0.358831	0.404056	0.388564	-0.446476	0.446898	-0.437792	0.493508	0.398749	-0.410913	0.365023	-0.397416
-0.490478	-0.335256	0.444991	0.421159	0.371396	0.405103	-0.395289	0.378567	0.385224	0.297105	0.377437	0.3728	-0.382567	0.420847	-0.395629	-0.401747	0.347331	0.44662	-0.371349	-0.437541	0.411975	0.381698	0.406946	0.398719	-0.508723	0.443614	-0.367677	0.375392	0.371383	-0.330826	0.342386	-0.44863
-0.430495	-0.39403	0.335523	0.353495	0.285765	0.382428	-0.410666	0.396974	0.37687	0.417273	0.37777	0.372789	-0.373079	0.303364	-0.32215	-0.283342	0.331429	0.388862	-0.403508	-0.352333	0.505856	0.377618	0.434074	0.449207	-0.381409	0.404072	-0.455047	0.427292	0.454306	-0.358435	0.389136	-0.389128
-0.572386	-0.420746	0.343379	0.245088	0.338662	0.296244	-0.278536	0.42853	0.198963	0.153725	0.273022	0.196889	-0.207979	0.3388	-0.412878	-0.447269	0.231009	0.315236	-0.33395	-0.360547	0.39198	0.296743	0.270838	0.191025	-0.245344	0.416514	-0.411607	0.400121	0.393032	-0.385245	0.314375	-0.394478
-0.244098	-0.40778	0.448768	0.524568	0.439714	0.487497	-0.367705	0.183097	0.534978	0.499059	0.464801	0.395102	-0.549636	0.382635	-0.55098	-0.547455	0.477645	0.567463	-0.532953	-0.468067	0.287798	0.368273	0.340198	0.536998	-0.376729	0.356455	-0.50357	0.518327	0.405243	-0.522866	0.509981	-0.154788
-0.476764	-0.457998	0.46242	0.364144	0.323805	0.400755	-0.402497	0.332208	0.455932	0.361118	0.447588	0.399821	-0.389429	0.47825	-0.431233	-0.417884	0.414017	0.450252	-0.355837	-0.3845	0.408398	0.396944	0.376747	0.387951	-0.346311	0.361985	-0.456936	0.406059	0.373004	-0.427467	0.475774	-0.4546
-0.409447	-0.419053	0.421096	0.588313	0.501872	0.589447	-0.51332	0.409882	0.582054	0.488225	0.397557	0.42462	-0.507497	0.35882	-0.424816	-0.383787	0.38481	0.560693	-0.432044	-0.532046	0.369434	0.294416	0.301366	0.312788	-0.497764	0.430007	-0.343526	0.53108	0.529377	-0.336532	0.480702	-0.254059
-0.259367	-0.389872	0.333692	0.404361	0.325949	0.257017	-0.422843	0.382672	0.296076	0.38407	0.330657	0.33302	-0.33545	0.455051	-0.31511	-0.355631	0.318819	0.294397	-0.387653	-0.334539	0.437595	0.227685	0.361718	0.35847	-0.266915	0.477236	-0.366039	0.37789	0.321162	-0.386024	0.327007	-0.510803
-0.477642	-0.278232	0.453254	0.394618	0.297678	0.340536	-0.289367	0.306931	0.315015	0.287706	0.363089	0.340403	-0.38522	0.357702	-0.311632	-0.314409	0.383615	0.342708	-0.312021	-0.38606	0.374369	0.295512	0.347228	0.397457	-0.19554	0.272743	-0.313739	0.271401	0.334935	-0.430177	0.222063	-0.408151
-0.409317	-0.454205	0.409238	0.405394	0.4986	0.478222	-0.479722	0.420664	0.38488	0.40126	0.501609	0.495704	-0.433322	0.471709	-0.505867	-0.413306	0.360993	0.449182	-0.477868	-0.402072	0.500825	0.451	0.422756	0.407399	-0.470725	0.404239	-0.434777	0.416489	0.428152	-0.487125	0.416462	-0.534732
-0.416311	-0.386633	0.351165	0.335136	0.372163	0.443797	-0.394258	0.309472	0.31384	0.336144	0.392718	0.435284	-0.34952	0.453319	-0.426472	-0.3383	0.324193	0.341561	-0.380145	-0.309097	0.415902	0.387015	0.342789	0.314245	-0.41706	0.466892	-0.325018	0.424177	0.402375	-0.398761	0.390438	-0.46697
-0.34427	-0.386822	0.462352	0.508504	0.424566	0.519971	-0.52435	0.486078	0.496975	0.416361	0.473463	0.465108	-0.46663	0.537442	-0.473018	-0.422634	0.494949	0.456943	-0.472355	-0.457426	0.408154	0.513018	0.44618	0.395955	-0.507942	0.452525	-0.359847	0.409827	0.46822	-0.399763	0.512891	-0.424135
-0.336779	-0.430583	0.337498	0.30749	0.346841	0.38982	-0.332529	0.356657	0.284719	0.329477	0.452154	0.356924	-0.249881	0.33139	-0.304595	-0.375457	0.326135	0.303884	-0.283007	-0.305973	0.348236	0.336582	0.290431	0.325092	-0.409344	0.351837	-0.304845	0.308851	0.407056	-0.404884	0.363537	-0.31847
-0.582935	-0.328765	-0.0297028	0.211498	0.302645	0.538151	-0.517011	0.355208	0.562672	0.476266	0.674978	0.532276	-0.410212	0.0474159	-0.30239	-0.288224	0.422591	0.599287	-0.181277	-0.393098	0.174257	0.58161	0.335423	0.494295	-0.429003	0.482183	-0.653543	0.408392	0.406563	-0.371679	0.207516	-0.589424
-0.337528	-0.421564	0.296842	0.391888	0.433032	0.44879	-0.412157	0.403987	0.42695	0.432484	0.337539	0.475406	-0.439587	0.294195	-0.313537	-0.425324	0.481876	0.392888	-0.384643	-0.465248	0.387907	0.484101	0.38192	0.43115	-0.383466	0.320483	-0.297827	0.472021	0.347904	-0.376103	0.429193	-0.380243
-0.305541	-0.233282	0.392478	0.322632	0.23808	0.38347	-0.403287	0.437128	0.343255	0.438318	0.420305	0.333795	-0.451794	0.286219	-0.463726	-0.460494	0.30537	0.344422	-0.426172	-0.219099	0.406933	0.279996	0.106437	0.237302	-0.357364	0.196984	-0.290834	0.367372	0.416876	-0.322237	0.320889	-0.352958
-0.524343	-0.369456	0.367512	0.397501	0.384362	0.413657	-0.453276	0.497131	0.405703	0.349558	0.418571	0.361206	-0.396129	0.373725	-0.300932	-0.46598	0.497787	0.383569	-0.467954	-0.424326	0.448259	0.360719	0.330215	0.4416	-0.460685	0.362073	-0.368868	0.487091	0.423022	-0.382689	0.434759	-0.458972
-0.531371	-0.388136	0.342361	0.447696	0.380643	0.3958	-0.297197	0.420234	0.363595	0.438737	0.439527	0.367885	-0.323586	0.359174	-0.42986	-0.333949	0.417082	0.396182	-0.404052	-0.472695	0.383425	0.40539	0.4347	0.403502	-0.464702	0.356965	-0.427637	0.471047	0.427417	-0.470521	0.362408	-0.344326
-0.279254	-0.39796	0.435551	0.463983	0.462194	0.426986	-0.42688	0.267315	0.380023	0.472239	0.4421	0.322951	-0.482801	0.30259	-0.493232	-0.354971	0.441935	0.461175	-0.461339	-0.264082	0.20324	0.431026	0.361245	0.568399	-0.441823	0.403125	-0.458528	0.47736	0.391699	-0.464242	0.410444	-0.241454
-0.520882	-0.474254	0.3966	0.474338	0.497541	0.507992	-0.403983	0.521507	0.369993	0.447806	0.504503	0.483635	-0.410361	0.5578	-0.512648	-0.435916	0.36547	0.405574	-0.443817	-0.415096	0.422908	0.501898	0.402114	0.407318	-0.482784	0.414919	-0.400521	0.427085	0.471138	-0.477605	0.447141	-0.432475
-0.393281	-0.436199	0.305412	0.421755	0.349318	0.376942	-0.444912	0.387852	0.360764	0.310656	0.453998	0.458233	-0.358648	0.442101	-0.446353	-0.441271	0.334535	0.433626	-0.422242	-0.47669	0.492651	0.391997	0.338541	0.37359	-0.282277	0.497871	-0.314231	0.404748	0.441211	-0.389764	0.398894	-0.454465
-0.456977	-0.283331	0.268522	0.447979	0.479929	0.327016	-0.339087	0.43631	0.167687	0.363338	0.460555	0.374194	-0.284723	0.389871	-0.324393	-0.426055	0.283214	0.366747	-0.329293	-0.307498	0.330032	0.339675	0.443478	0.406745	-0.399971	0.462523	-0.405655	0.311844	0.319124	-0.398812	0.389133	-0.315991
-0.154347	-0.347214	0.507962	0.389545	0.499471	0.370368	-0.396269	0.451352	0.384551	0.491317	0.51634	0.431107	-0.412805	0.542838	-0.393173	-0.410463	0.49139	0.389239	-0.361132	-0.383566	0.391728	0.424064	0.30225	0.400596	-0.347559	0.483839	-0.437435	0.369173	0.453002	-0.421681	0.366123	-0.45201
-0.480832	-0.413774	0.402023	0.390026	0.410841	0.425921	-0.481174	0.473876	0.500351	0.359621	0.409716	0.445299	-0.45573	0.455033	-0.39636	-0.467256	0.55948	0.4729	-0.456883	-0.418301	0.47899	0.444091	0.431473	0.458759	-0.476415	0.466093	-0.408948	0.395257	0.401528	-0.407386	0.417641	-0.422837
-0.224369	-0.396286	0.375794	0.399459	0.515142	0.478343	-0.538963	0.462626	0.608134	0.237739	0.483554	0.4411	-0.480462	0.531266	-0.596521	-0.566761	0.284876	0.419865	-0.446378	-0.654617	0.425901	0.491229	0.130794	0.490425	-0.391673	0.444769	-0.626911	0.437475	0.597355	-0.373278	0.331288	-0.271267
-0.579963	-0.405789	0.295564	0.376526	0.475016	0.342405	-0.457952	0.454239	0.381752	0.463462	0.377075	0.397293	-0.473916	0.397713	-0.441733	-0.453488	0.342924	0.453828	-0.443668	-0.357777	0.468383	0.452886	0.512892	0.412214	-0.393012	0.455852	-0.343849	0.418146	0.381225	-0.401	0.422499	-0.484323
-0.494451	-0.388647	0.42818	0.431561	0.457923	0.431634	-0.409385	0.471265	0.43866	0.389007	0.480991	0.466436	-0.447916	0.395771	-0.390779	-0.481909	0.491219	0.478872	-0.500598	-0.462224	0.522511	0.35808	0.443256	0.47712	-0.411892	0.370423	-0.417105	0.443518	0.467945	-0.406868	0.479733	-0.489148
-0.428632	-0.333192	0.313565	0.369587	0.392439	0.30127	-0.387977	0.368946	0.316319	0.358875	0.36106	0.352988	-0.285752	0.330979	-0.383522	-0.322256	0.235681	0.400982	-0.349217	-0.392574	0.379958	0.468701	0.384272	0.331018	-0.350564	0.485566	-0.376722	0.401454	0.377696	-0.435834	0.424952	-0.355754
-0.409059	-0.328746	0.487175	0.359811	0.428394	0.448629	-0.412246	0.344623	0.397119	0.417959	0.416251	0.403418	-0.454724	0.481126	-0.362217	-0.469796	0.405134	0.35715	-0.409146	-0.365198	0.385772	0.382454	0.508262	0.367143	-0.373231	0.448366	-0.345513	0.389648	0.330966	-0.314262	0.437769	-0.418523
-0.283453	-0.347714	0.442942	0.413622	0.334277	0.449878	-0.343012	0.434781	0.328565	0.314767	0.356615	0.475793	-0.363464	0.29993	-0.26369	-0.300307	0.262546	0.272021	-0.25575	-0.422767	0.358889	0.455163	0.378519	0.414471	-0.407571	0.37947	-0.419191	0.283389	0.300559	-0.321543	0.269627	-0.209131
-0.59711	-0.716802	0.129575	0.418899	0.608361	0.367361	-0.593302	0.640732	0.56858	0.530868	0.144264	0.502042	-0.394978	0.315972	-0.272137	-0.336451	0.621132	0.440609	-0.631011	-0.460909	0.220824	0.577818	0.563652	0.406326	-0.527882	0.427217	-0.349369	0.498539	0.416857	-0.210005	0.570878	-0.360621
-0.601841	-0.374101	0.515233	0.28967	0.314859	0.406643	-0.188309	0.389664	0.207112	0.323059	0.445415	0.323139	-0.244931	0.42755	-0.422536	-0.574513	0.15965	0.436186	-0.353177	-0.411098	0.449558	0.316556	0.334147	0.316886	-0.377997	0.412302	-0.536807	0.460274	0.331861	-0.373823	0.303366	-0.441049
-0.331091	-0.233941	0.379345	0.371716	0.31158	0.383159	-0.22435	0.371803	0.367965	0.29601	0.322553	0.365902	-0.254421	0.244395	-0.382829	-0.246744	0.286446	0.379002	-0.371957	-0.404582	0.217539	0.252855	0.251596	0.300615	-0.409174	0.35549	-0.198168	0.384338	0.499161	-0.346197	0.415822	-0.383229
-0.312814	-0.325791	0.181613	0.374454	0.403045	0.384593	-0.451031	0.437082	0.403518	0.33873	0.477712	0.441621	-0.375199	0.346396	-0.442577	-0.396134	0.337616	0.309439	-0.309571	-0.396966	0.397759	0.437086	0.450917	0.380828	-0.36361	0.410879	-0.407788	0.410663	0.380285	-0.410964	0.349156	-0.352185
-0.4639	-0.392369	0.40854	0.445556	0.407108	0.457996	-0.370548	0.443101	0.418267	0.456262	0.424694	0.416774	-0.423098	0.501557	-0.492804	-0.402882	0.409478	0.493257	-0.501419	-0.454101	0.400111	0.359426	0.371553	0.41049	-0.345937	0.425286	-0.36986	0.380826	0.457727	-0.438814	0.400378	-0.401955
0.0157443	-0.184095	0.159499	0.403654	0.225553	0.38015	-0.120972	0.429948	0.282081	0.353543	0.380449	0.487684	-0.209554	0.193426	-0.207428	-0.467385	0.373975	0.31093	-0.15892	-0.193699	0.0849549	0.158933	0.557109	0.322336	-0.360869	0.416875	-0.381823	0.398051	0.139689	-0.429544	0.248218	-0.35959
-0.365067	-0.512251	0.381409	0.462763	0.427208	0.422444	-0.393433	0.363523	0.411897	0.475221	0.331791	0.468697	-0.412551	0.358126	-0.39748	-0.461858	0.47053	0.408571	-0.369979	-0.458341	0.452191	0.403594	0.349543	0.318178	-0.337339	0.430286	-0.407418	0.36938	0.314367	-0.359222	0.478323	-0.435329
-0.575161	-0.51799	0.525712	0.430255	0.495561	0.475607	-0.401846	0.452543	0.417657	0.479806	0.45328	0.437872	-0.519612	0.437574	-0.462966	-0.489815	0.434814	0.38941	-0.543314	-0.3511	0.448694	0.497413	0.520403	0.52777	-0.468728	0.426185	-0.402285	0.518467	0.434275	-0.531614	0.458357	-0.489786
-0.399949	-0.336207	0.23137	0.366686	0.326705	0.326806	-0.306811	0.423341	0.211935	0.141178	0.426627	0.45198	-0.288444	0.535048	-0.301564	-0.393501	0.376455	0.313688	-0.340597	-0.211962	0.263416	0.250601	0.515581	0.312755	-0.315419	0.552263	-0.432978	0.446776	0.145696	-0.32466	0.28799	-0.297443
-0.275158	-0.411982	0.54417	0.430696	0.492735	0.4446	-0.399458	0.423024	0.429226	0.464777	0.432866	0.370872	-0.410441	0.347655	-0.488801	-0.323231	0.499643	0.342754	-0.352377	-0.558223	0.443943	0.375565	0.406974	0.392209	-0.462743	0.364541	-0.424066	0.512551	0.336979	-0.482038	0.426914	-0.299131
-0.256087	-0.402659	0.40888	0.406791	0.447443	0.462666	-0.337732	0.448448	0.395528	0.463471	0.336212	0.413957	-0.484498	0.436951	-0.439332	-0.342489	0.425778	0.461968	-0.373687	-0.401667	0.530845	0.422863	0.409256	0.447775	-0.420452	0.497332	-0.465248	0.390361	0.478358	-0.374515	0.467628	-0.466938
-0.369208	-0.372132	0.395365	0.406678	0.365473	0.384453	-0.485696	0.465665	0.440896	0.357786	0.473138	0.422095	-0.472347	0.502329	-0.486842	-0.420686	0.387188	0.38037	-0.529493	-0.520053	0.466617	0.401084	0.439838	0.447949	-0.385251	0.45986	-0.380972	0.384608	0.405598	-0.450698	0.410812	-0.456164
-0.12218	-0.378298	0.351616	0.462186	0.522309	0.459239	-0.348775	0.38956	0.355842	0.362902	0.460732	0.322997	-0.46661	0.463908	-0.297044	-0.409266	0.172064	0.445521	-0.521869	-0.522986	0.446201	0.451402	0.381841	0.417011	-0.490883	0.450365	-0.286061	0.407184	0.457439	-0.420348	0.399358	-0.568983
-0.395142	-0.449242	0.407821	0.414171	0.398689	0.449341	-0.48376	0.488737	0.373859	0.369045	0.359539	0.480764	-0.334079	0.467808	-0.35012	-0.413625	0.450303	0.427239	-0.4579	-0.309369	0.390183	0.529774	0.501137	0.491406	-0.448682	0.513771	-0.423576	0.37389	0.538172	-0.51069	0.40027	-0.535405
-0.157152	-0.427483	0.55448	0.439175	0.454184	0.359966	-0.359857	0.115303	0.491633	0.522412	0.515413	0.374554	-0.412346	0.390973	-0.5165	-0.378166	0.629567	0.515693	-0.462506	-0.311156	0.286157	0.367329	0.224103	0.560918	-0.462464	0.17763	-0.441555	0.374007	0.372233	-0.468496	0.395702	-0.0648725
-0.559035	-0.430541	0.410393	0.39195	0.414344	0.394343	-0.342804	0.481949	0.309373	0.4734	0.345217	0.496511	-0.426664	0.370555	-0.390875	-0.319878	0.253893	0.480448	-0.364878	-0.313666	0.403712	0.49162	0.551148	0.369612	-0.482494	0.573669	-0.447587	0.412338	0.483664	-0.416845	0.367755	-0.55357
-0.0635229	-0.451553	0.171226	0.24971	0.356874	0.384381	-0.336034	0.319966	0.274589	0.358292	0.267552	0.385849	-0.298746	0.397445	-0.307327	-0.27891	0.387293	0.383576	-0.337526	-0.362287	0.285748	0.318723	0.362935	0.336565	-0.328877	0.280113	-0.252975	0.379192	0.396021	-0.295143	0.373084	-0.406516
-0.255439	-0.377712	0.370621	0.446834	0.312849	0.278125	-0.35263	0.323091	0.281134	0.395637	0.354722	0.438047	-0.346871	0.409394	-0.307589	-0.383519	0.299363	0.38348	-0.421444	-0.283648	0.444934	0.378745	0.420971	0.368125	-0.364651	0.470218	-0.443935	0.377424	0.333941	-0.398264	0.368856	-0.360991
-0.361027	-0.398883	0.372364	0.487645	0.430924	0.429546	-0.364987	0.379692	0.311364	0.39006	0.468156	0.393526	-0.357179	0.615844	-0.352168	-0.491901	0.482224	0.359505	-0.241759	-0.315443	0.277463	0.466174	0.397507	0.345579	-0.41061	0.36592	-0.537265	0.403165	0.384505	-0.446019	0.330775	-0.4471
-0.640528	-0.33833	0.399625	0.405821	0.399492	0.448525	-0.395646	0.466065	0.37237	0.392258	0.263734	0.409807	-0.395512	0.365298	-0.333698	-0.374495	0.322648	0.417575	-0.440158	-0.343704	0.350439	0.376572	0.367119	0.454436	-0.326304	0.334487	-0.427318	0.459034	0.495306	-0.355703	0.432206	-0.468165
-0.621064	-0.388738	0.324303	0.419562	0.403004	0.297656	-0.320394	0.468231	0.262049	0.472107	0.26527	0.505857	-0.356126	0.373111	-0.282536	-0.317575	0.39916	0.316027	-0.418193	-0.33243	0.284324	0.35466	0.542095	0.452188	-0.337977	0.399036	-0.416378	0.422712	0.476567	-0.321864	0.388288	-0.428787
-0.330344	-0.459499	0.368674	0.428741	0.373302	0.457164	-0.523998	0.492843	0.404166	0.382549	0.388709	0.379316	-0.428598	0.43998	-0.396651	-0.380212	0.53823	0.417784	-0.424103	-0.393415	0.429328	0.407187	0.382685	0.393978	-0.39415	0.409575	-0.390081	0.429695	0.377418	-0.472296	0.499427	-0.308166
-0.651211	-0.370055	0.407922	0.405976	0.216755	0.485704	-0.415003	0.485809	0.252799	0.133694	0.266696	0.316549	-0.325352	0.229098	-0.222597	-0.229405	0.366463	0.328754	-0.300973	-0.166655	0.258914	0.257833	0.0844496	0.27859	-0.34496	0.34195	-0.280141	0.273742	0.254518	-0.325187	0.304449	-0.0389168
-0.38787	-0.435972	0.410951	0.454899	0.500077	0.378289	-0.434482	0.391867	0.355785	0.393665	0.472303	0.407626	-0.412747	0.388883	-0.442218	-0.473715	0.464936	0.453605	-0.323826	-0.343684	0.423901	0.37046	0.497819	0.45208	-0.406441	0.472272	-0.401076	0.426179	0.441629	-0.35997	0.379914	-0.392921
-0.845699	-0.267316	0.152057	0.340654	0.206615	0.256997	-0.204599	0.455774	0.103356	0.314295	0.278492	0.244861	-0.25495	0.157095	-0.388215	-0.349798	0.281161	0.301438	-0.270083	-0.369697	0.432029	0.372046	0.36144	0.30052	-0.343085	0.197023	-0.33193	0.150287	0.214306	-0.473744	0.244999	-0.386616
-0.553081	-0.475145	0.414499	0.476212	0.477349	0.433165	-0.449066	0.599937	0.360066	0.455254	0.331984	0.39175	-0.447426	0.477732	-0.366107	-0.361436	0.423999	0.521788	-0.440381	-0.343019	0.484521	0.415538	0.37697	0.399179	-0.384355	0.428588	-0.511765	0.456548	0.560931	-0.421168	0.450272	-0.455194
